5425 50
， 0.334656 0.039433 1.771318 1.020576 0.540931 -0.896016 -0.385091 0.688764 -0.597451 -0.050670 0.426598 -0.425948 -0.492361 0.200362 -0.904078 0.819837 -0.386270 -0.592616 -1.272093 -0.396935 -0.250688 -1.168550 0.421696 0.018768 -0.018278 1.401214 1.457796 -0.280298 0.259949 1.936912 -1.785222 0.928385 2.478325 1.289868 0.423511 -0.245740 0.461400 -0.492622 -0.501994 0.887924 1.072357 0.376044 -0.899887 1.435028 0.183208 -1.384511 0.043332 1.302393 0.194552 0.292271
的 0.024540 -0.584942 1.881083 0.259717 0.241220 -0.576623 0.234218 -0.549577 1.070574 0.407407 -0.693468 -0.311400 0.809928 1.269393 -1.207671 0.946167 1.905172 -1.759335 0.226835 -0.414602 -0.493049 -0.875329 0.202248 -0.267684 -0.006516 1.340577 -0.149870 0.013479 0.781437 0.648291 -0.095593 1.573661 1.928080 0.809039 -0.231630 -0.577385 -0.366137 -1.137199 0.320830 -0.124203 0.747666 -0.004380 -0.123858 1.603496 0.312864 -1.093415 -1.116708 0.276134 -0.750100 -0.963388
。 0.845086 -0.320241 2.026865 0.368456 -1.051765 -1.520470 0.023680 -0.321811 -0.595119 0.269100 -0.460463 -0.395356 0.545905 1.599795 -1.902411 -0.454721 1.462837 -0.771704 1.273465 -0.272922 -1.598839 -0.575965 -0.131195 -0.199022 1.216223 1.347614 0.732309 -0.175926 0.976448 0.555216 0.181101 1.511510 2.719750 1.406350 0.035932 0.819068 -0.700100 -1.738173 -0.229168 0.048614 0.193076 -1.211012 -0.003935 1.652098 -0.585778 -0.834826 -0.814415 0.126011 -1.354890 -0.148156
、 1.460885 -1.339216 -1.342440 0.503153 -1.049154 -0.797247 -0.320802 -1.254260 1.518964 0.121810 -1.096687 -1.887491 -0.079713 1.927933 -0.138598 -0.739036 4.785285 -3.012481 2.565974 -0.424587 0.582578 1.629876 1.467582 0.595559 -0.884325 0.788228 -1.442247 -2.546936 -0.179718 -0.395277 1.865453 2.620731 -1.386778 0.828405 -0.132992 -0.509690 -1.835562 -0.191633 2.700271 -2.624300 -0.799676 -1.537150 -0.781889 -0.989347 -0.067431 -1.157429 -1.692335 -2.819282 -1.161653 -3.084188
国 1.935232 -2.509374 -0.171752 2.780582 4.954994 4.232237 -2.457573 -2.610142 3.337541 -0.604582 -0.935593 -1.583134 -1.193044 -2.693833 2.496351 4.893497 -0.927719 -0.720439 -2.447720 -0.090122 -1.110935 -2.560966 2.253174 0.154681 0.878393 -1.466794 -0.336801 1.769457 1.493105 -3.926615 -4.608765 -0.243346 -0.681175 2.582308 -0.627640 -2.596742 -6.385410 -2.068603 1.733826 1.209376 -3.818482 -0.168074 -1.927504 1.954118 0.999236 -3.380774 -1.371899 -0.480123 -2.594389 0.661051
一 -0.466834 -0.743461 2.714722 0.217743 -0.659647 -1.816808 0.735102 2.307672 3.548706 2.054478 1.334097 -1.284237 1.231662 1.905141 0.141795 3.209226 -1.401516 -0.414644 -1.975360 3.087174 -3.613755 -2.202732 -3.723593 0.706270 0.305082 3.103172 0.360553 -0.222606 2.798513 -1.545861 -1.103148 1.409305 0.716234 0.561112 1.695820 -0.814261 3.860440 -2.173165 -1.841584 1.886184 -0.683616 -1.620960 0.079535 0.895046 -1.635352 -0.334070 -1.622909 5.006009 -0.397658 -1.987111
在 -0.048865 -1.439814 1.617246 0.179476 2.631105 -2.016715 -0.861676 -0.578046 1.642497 -1.152967 2.589153 1.270676 0.686852 -1.404047 -0.670637 1.924397 -0.236160 -0.616611 -1.064400 -0.951317 -0.468029 -2.228946 2.530169 -0.381981 0.257999 1.152635 0.159193 0.092509 -1.609688 0.788243 -1.030930 2.204720 0.560856 0.976568 -0.831588 0.066523 0.348830 -0.691261 0.003063 0.693421 0.967734 -0.803258 -2.559677 1.430864 0.140744 -0.883616 1.527627 0.603703 -0.080780 0.532533
中 -2.455679 -1.388989 -0.615821 -0.064557 0.089478 1.941633 -0.600265 1.517128 2.745892 -0.699108 -0.121214 2.692667 1.353353 -0.409504 0.441723 -2.035627 0.968884 -2.763834 -0.552743 0.110909 -0.669169 0.471566 0.262139 1.290016 -2.130633 -1.032414 1.911419 -0.619706 -0.169428 -0.494389 -1.195328 1.560390 1.972735 1.065669 2.059689 -2.460450 0.345886 -0.718722 2.066500 0.708094 3.878810 1.365507 -0.514030 -0.440844 0.889909 3.690324 -1.457969 1.934268 0.704461 -1.680785
了 -0.404135 -0.845633 1.594564 -0.550181 0.360808 -1.844853 0.282745 0.569749 -1.832541 -0.489136 0.624802 -0.211876 0.766802 -0.095157 -0.832395 -0.810907 -1.258485 0.169186 -0.813112 -0.859915 -0.101889 0.615740 -0.211299 -0.714971 -0.549683 1.521889 -0.348343 0.004473 -0.346616 0.520838 -0.204321 -0.822327 1.322881 2.375581 2.393706 -0.652081 0.971420 -1.682607 -0.879835 1.947636 0.586763 0.198770 -1.183000 1.919029 -1.757162 -1.546758 -1.025642 0.968074 -1.529303 0.993639
人 1.324191 0.759830 0.872863 -0.370129 0.810623 1.427340 2.445648 0.518782 -0.708376 -1.328900 1.635079 0.218698 3.351632 -2.675891 2.101987 -0.202058 0.014097 -1.168743 -1.878032 1.853753 1.417583 1.217277 -0.155106 -1.635243 1.624020 1.255910 4.941322 0.271979 -1.295472 -1.946396 0.182761 -0.210901 1.464869 0.665698 1.221427 -1.053715 -0.870150 -0.805974 2.560306 -0.761162 -1.486919 4.652285 0.594144 1.236491 3.404905 1.258297 -1.320186 2.750659 -0.380751 0.878501
是 1.886227 0.377725 3.056257 1.661285 1.981434 0.514005 1.064688 0.714228 0.290349 0.590134 1.360402 0.266189 1.303770 0.911911 -1.044837 2.053296 -1.777420 -0.234636 -0.880682 -0.914182 -0.440864 -2.118250 -0.295721 -2.226007 0.971446 2.457155 -1.577551 0.897316 0.135950 1.839817 -2.052067 2.126620 2.859759 -1.042807 0.106723 -0.102468 2.837768 0.102016 0.985586 0.304031 1.901428 2.189247 -0.400284 1.391814 0.011318 0.409657 0.348460 -0.453010 0.778807 0.245978
和 0.064742 -1.252388 1.230760 0.176646 0.329215 -1.020005 -0.825015 -0.349680 2.536036 1.223951 -0.259129 -0.264482 -0.537278 2.239313 -1.534269 0.723136 3.916778 -3.558218 0.383387 -0.575598 -0.220881 0.692585 1.371963 0.703913 0.278827 1.236122 -0.918725 -1.331478 -0.218530 -0.900930 0.307492 2.768258 0.889474 1.774075 -0.338859 -2.739874 -1.262295 0.039579 2.377927 -1.807243 0.643355 -0.535090 -1.374596 1.421278 0.916047 -2.100305 -1.341077 -1.645433 -1.023809 -1.395484
有 0.894952 2.899702 3.731817 2.409618 3.234814 0.147766 0.771411 -0.208857 -0.144498 -0.600182 1.833981 -2.643446 1.122490 3.122940 -2.448581 3.254052 -0.853520 -0.795277 -4.170496 1.556096 -1.044190 0.628928 2.871863 -0.919954 1.041306 1.124757 -0.431595 0.252109 1.664934 3.393205 1.733799 2.191856 -1.720338 -1.003199 0.491100 -0.857989 1.828268 0.102732 1.015089 1.407046 3.024870 1.286597 0.472497 1.794934 -0.980232 1.285707 -0.132342 1.255582 -0.939741 1.540791
大 0.009687 -2.334101 -0.359654 1.409968 2.593565 -0.648479 -0.426444 -0.851060 1.223525 1.084029 2.000452 -0.181952 -3.605581 2.554579 0.740015 0.807992 0.173961 -2.406689 1.546177 -2.230269 -0.098626 -0.366595 -1.863391 -1.562337 1.669502 -0.855354 -2.257089 0.586019 1.194186 1.418047 2.390435 0.552397 0.047261 1.552032 0.541517 -0.461529 -0.976005 -1.719920 2.224236 0.438242 2.292726 -0.323211 0.389122 2.192579 -0.784423 1.821194 -3.113721 2.349261 -0.678513 -0.747166
１ -1.185726 -1.261127 0.765427 1.889882 -0.559731 -2.442455 -1.411795 1.028906 2.369002 -4.370301 0.597997 0.699448 -1.222661 -4.736946 -0.437617 -0.811257 -0.391126 -4.309738 -1.594422 4.494007 1.211125 1.137710 1.304361 4.277874 3.089158 -2.703792 1.066842 -2.405134 -1.511971 0.485038 0.553882 -6.703661 -2.973590 -1.740177 -1.636343 -1.179089 1.774549 -3.313810 -2.772098 3.643220 0.137021 -1.076908 -1.038542 1.035756 1.077667 0.943474 1.034720 1.510435 0.928435 -0.266753
年 1.869206 1.738036 -1.398401 -0.834625 4.903493 0.811686 -3.734330 2.240741 1.125437 -4.724380 0.232257 3.768205 1.128684 -8.358895 -1.828314 -1.014405 0.406218 -0.618813 1.375492 -2.297949 1.153275 -1.779531 2.266249 -0.966091 -0.511988 0.045470 0.488720 0.269657 -6.665602 3.249138 -4.030348 -3.628157 -2.711874 1.191979 2.220315 1.673868 -1.172887 -2.286955 -3.648803 5.210564 -1.458649 2.892117 2.285639 0.410381 -0.507964 0.144468 -3.153774 2.303237 -1.109720 5.595777
不 0.061827 2.119963 3.792850 -0.346644 -0.717287 0.942843 0.679113 0.839539 -4.300560 -2.320005 -0.523294 -0.415816 -1.430300 2.540696 -0.985954 0.896042 0.009226 0.042663 -2.072995 -1.115195 -0.382700 -0.083840 -1.296610 1.125038 -0.426384 0.701659 0.728806 1.960181 1.723259 3.910695 -2.586131 3.175806 3.494957 -2.448322 0.624948 1.072959 0.438133 1.028777 -3.137320 0.064498 -1.342044 0.088669 1.174590 0.183322 1.473713 -1.655788 -1.828822 0.825266 2.077054 3.674026
为 -1.600832 2.483692 -1.752956 1.788468 -0.811206 -1.633299 -3.063360 1.072373 0.014522 -0.242180 3.724523 -1.249041 2.285622 0.081179 -1.506768 2.865649 2.520029 -1.124761 0.482584 -2.933875 2.593597 -1.529183 -1.015902 -0.073155 -0.495477 -0.861080 0.111559 -0.145063 2.810766 2.250200 -1.686996 0.154976 4.788118 -0.221407 -0.030835 -3.149235 -0.371539 -3.343321 3.602960 -0.733964 1.829610 1.280972 -1.516219 -0.054797 0.276178 0.847483 -0.887177 1.121688 -1.898614 1.875726
０ -0.103848 1.037938 3.060873 2.629711 -1.583287 -4.181716 0.061575 -2.354862 2.142783 -4.677019 0.481787 1.395181 0.695555 -5.570465 -0.642297 -0.029860 -1.161633 -5.117011 -1.303631 3.320803 1.428661 0.868370 2.251152 1.741628 3.303142 -1.120999 1.877998 -4.237599 -1.561654 1.863801 2.182064 -7.560186 -2.939903 1.038210 -0.233728 -0.723487 1.283492 -5.731495 -2.239754 4.801238 0.292178 0.211881 -0.079805 3.835034 2.218077 -1.437680 -0.069963 -1.095195 1.788258 0.863452
会 -0.842423 -1.096204 1.842391 -3.325120 -1.485846 2.213859 0.269558 -2.225253 0.939371 0.595068 1.913795 2.356750 -2.001281 0.824436 1.495248 5.167124 -4.118337 -0.684668 -0.442368 -2.282814 2.184284 1.558296 2.942613 -1.165315 3.168221 0.116558 -3.103324 -1.092998 -3.327468 -4.368300 -4.070341 3.507768 1.066835 7.719431 1.730025 -0.253425 3.258268 -3.827629 2.573214 -0.412073 -2.187392 1.215457 2.365207 -1.396011 4.938457 -0.575488 1.911531 1.146105 -2.821995 -1.113108
” 0.074111 0.693622 1.068148 -0.942179 -2.093444 -0.448933 -0.477469 0.369587 0.574249 -0.417783 1.219745 -0.771093 0.975662 -0.759792 -1.523293 -0.065049 0.015268 -0.577409 3.616944 0.761750 0.231701 -1.709615 -1.983201 -1.518835 -1.656254 0.160936 -1.697912 2.525861 1.491946 -1.169238 0.286458 3.112159 -0.072307 -1.740308 -0.419467 0.207313 0.534826 0.181915 1.448510 0.052016 -1.323843 0.566765 -1.289899 0.660125 -2.675228 -0.053430 -3.687122 -1.698230 1.941351 0.106399
业 1.852197 2.889924 4.699944 0.338466 6.864261 -0.832169 5.327321 -1.640489 -0.773640 2.399472 -2.775347 2.060853 3.413937 4.017701 0.759290 5.481753 -2.700481 -7.790061 -1.632360 -2.866173 3.514933 1.179213 -1.918015 0.961674 -6.157829 -2.533354 -6.380842 -4.942953 -1.827169 -1.023586 -3.083098 -1.002141 -0.662034 1.424557 -0.656636 -0.895292 -2.069854 -1.205497 0.321369 1.611213 -1.810637 2.883375 0.128429 -0.775456 -4.043593 1.729826 -2.199539 -0.558614 -3.453155 -1.236624
“ 2.442741 -0.841348 0.837461 1.313844 -1.401018 -0.388175 -0.598543 1.465054 -0.722131 0.947028 -1.928508 -0.381186 1.727435 0.721178 2.370719 -0.915590 -1.746566 1.421830 1.996217 0.363862 -0.076424 -1.635894 -3.443725 -0.863362 0.398701 0.184105 -0.064024 1.809398 1.109614 -1.487354 0.034105 2.179437 1.554096 -1.970546 1.260173 0.924386 0.206200 -1.138066 2.218321 -1.686983 0.636045 0.549793 -0.601817 1.121211 -3.322962 -0.790547 -1.262596 -0.515792 -0.772940 -0.460255
发 -3.273007 1.570787 0.896625 -4.880160 1.333129 2.824977 -1.622792 2.453383 -1.194336 -2.364871 -2.673301 -2.607402 -2.667039 3.841576 1.752731 1.134475 2.037963 -2.494153 -4.467097 -1.027755 -3.815819 -1.146865 4.401038 -1.009570 -2.259141 -0.420855 -3.374062 2.219968 -1.192412 1.457748 0.249573 -2.314562 -0.498633 4.492242 -2.668141 1.053555 -0.336839 -2.522503 0.686297 0.901611 -0.264809 6.947363 -7.723678 5.963440 -4.859548 1.092767 2.255328 2.931931 -0.104502 -4.105316
上 -0.804281 -1.572651 -0.242814 -1.285002 -0.779222 -3.033978 -1.642390 0.721934 0.147744 -0.874640 2.345585 0.234247 0.814871 0.536819 -0.019202 0.088007 -0.776171 0.246636 1.560872 3.053494 0.202655 -2.195533 -2.336584 -0.177982 0.133489 -0.781751 0.110278 -3.157278 1.672467 2.324509 -2.048445 -0.098625 2.091793 1.849385 -1.479035 0.856863 1.093879 -0.582757 -1.224233 1.224317 2.175939 -0.760655 -0.612598 -0.480052 0.902383 0.471204 0.569642 2.496422 1.557003 -0.640017
地 -0.228499 -0.815370 2.618028 1.071651 0.852124 -1.208616 3.354937 -0.816776 -1.310845 2.577294 -2.981731 -0.488762 -1.487358 -1.183315 4.170223 -1.222894 1.612081 -1.119090 -4.627040 2.005345 -0.579952 1.132449 -0.645650 -0.072500 0.228683 1.384685 0.188720 1.963714 2.625923 2.020466 1.999686 2.907233 2.121783 2.169524 -0.226281 -1.483833 -2.065829 -0.558272 1.218097 0.858415 4.281871 -1.918624 1.095489 -1.740944 -1.113491 -3.059958 3.714482 1.856672 -1.000558 0.310003
这 0.937902 -0.972042 1.794109 0.652770 -1.274376 -1.381966 -0.108218 2.545453 0.678905 3.250490 3.569768 -1.043163 1.290862 -0.010202 -1.580304 5.659300 -4.945378 1.947574 -4.157403 1.892943 -3.388378 0.779683 -2.752961 1.341384 0.013908 4.134241 0.435428 0.506020 3.125917 -2.262818 1.459628 2.725514 0.433986 -1.341812 1.607810 -1.263340 2.893887 -3.691531 -1.678490 -0.600744 0.535997 1.470346 2.362068 1.073158 -0.546442 0.637070 1.587678 5.991590 1.362549 -0.437010
作 3.989562 -2.597288 6.630438 -1.141731 1.091612 1.933537 -1.360343 2.034601 -3.861521 3.435951 -8.611031 0.408107 -0.308822 6.925197 0.374775 0.780267 -4.285679 -2.889734 -0.617415 1.331138 -2.332494 -0.401075 0.083722 -2.386563 0.283152 -0.192903 1.045411 2.018975 -3.418404 -6.171508 -0.377294 -3.338130 -0.033269 1.814711 1.465152 -1.281493 -2.364377 2.262693 -0.170365 3.156222 -0.308566 1.085827 1.292839 -3.403183 3.643070 -4.604203 0.000784 2.345393 0.461627 -4.966793
出 -1.344840 -0.788830 -0.789400 -5.255834 1.226050 0.691206 0.023694 -2.510465 2.416303 0.123563 7.695824 -2.445860 0.594514 -4.145441 -6.430630 1.249398 -0.951261 -0.170537 -1.059270 3.874013 3.656766 -1.569038 1.479651 0.667706 1.924565 0.260141 -0.648283 -2.593895 2.612868 2.788267 -0.083454 3.511420 3.110479 3.647027 -1.708887 -3.350192 -0.944591 0.431150 -3.137136 2.853464 2.240817 2.758596 -2.230255 0.735962 -3.882164 2.548807 -1.958870 -0.815920 -0.731502 -1.986446
个 -4.150706 1.836981 0.496229 1.608877 2.400607 -1.602849 -2.491083 0.480998 -1.098745 -2.358183 -2.566064 1.207048 3.788023 -4.113580 1.364545 -1.052093 -0.391422 -0.777567 2.009596 -1.176467 -0.061176 -3.301835 0.618110 -2.162808 4.090470 -0.798251 -1.211770 1.018031 -3.142377 2.227750 -1.603383 -0.571241 -0.738199 -1.021317 0.481639 -1.712726 0.193793 -0.961054 -0.045119 5.604456 2.556887 3.716163 0.413772 0.768266 -0.513067 0.273449 -2.155404 0.097045 0.614116 3.754665
要 1.728598 1.701042 3.399232 2.022953 0.044117 0.846225 3.943186 2.229070 -1.120952 1.950384 0.021122 -0.502688 0.616397 1.685010 1.002114 1.956414 -3.601273 1.514099 -0.468963 -3.372256 2.614993 -0.021661 -4.061974 -0.689686 0.135992 -1.592195 -2.287428 2.356949 2.105835 3.687434 0.715604 1.331135 1.221138 0.662435 -1.223177 -3.756395 2.569791 0.309874 0.090726 2.007188 5.060689 3.820458 -1.095075 3.940852 7.301329 -2.283049 -1.940334 1.523189 -4.839829 -3.699430
行 -0.502152 -5.459629 -0.928349 0.895890 -5.184365 0.605774 1.771690 3.460846 -0.462727 -0.144906 -1.150939 4.075314 -4.257586 -0.900916 1.266236 4.884317 -0.556271 -0.174967 0.714248 2.049147 2.560527 -3.495411 3.857361 3.480701 -1.946541 -1.567538 0.571593 1.669336 -1.130813 -2.613762 3.377798 3.140960 -0.380038 2.920330 -0.201193 -6.010753 2.651770 3.471339 1.730090 3.076755 1.876354 -6.469897 3.996786 -4.074829 -0.953706 -4.063665 -6.188940 2.204912 -2.117511 2.685050
工 -7.413355 6.049673 -4.839678 -0.086880 2.379676 3.900605 0.206500 2.352535 1.427199 0.566078 5.652538 -4.152185 3.435412 -0.476978 -0.066310 2.394410 1.909608 -2.688286 3.725672 0.026471 5.232924 2.784112 0.611941 1.103142 0.835229 0.665395 -3.920049 -2.432740 -1.033965 5.417096 3.368018 3.534225 1.978807 0.500360 -1.017745 -3.040617 -0.556427 -3.167628 -3.246321 -2.995902 2.213656 -3.129121 -3.959449 3.789321 -0.909117 2.415327 -5.291816 0.997140 -2.920545 2.488715
家 -0.555291 2.363717 -0.490003 0.315236 0.706992 0.218615 1.694419 1.069475 0.103689 -1.506420 1.656999 3.264601 3.037762 -1.749166 1.576826 1.430207 -0.182806 -0.987876 -1.562470 0.616903 0.507578 2.989377 2.523868 0.971924 -2.885416 -0.066725 -0.995848 -2.255729 -1.880411 1.590561 -0.814369 1.349570 -1.546667 -0.614702 4.245285 -2.647011 0.416706 -1.099652 3.374317 0.959493 2.442946 2.992994 2.368440 -0.158230 -0.913392 6.565630 -3.559997 0.390426 0.967295 0.730079
经 -3.853985 -2.142627 3.452303 -0.155854 4.492552 2.189756 -4.317656 6.595401 3.283020 -2.485328 -4.700427 4.328994 3.284929 5.288862 0.233344 10.053401 3.521858 -3.618294 -1.065759 0.648067 3.331292 1.993863 2.223711 0.328719 1.602544 -7.904449 3.809549 0.453434 6.660685 3.007931 1.136326 4.281293 0.398347 5.272165 4.709074 3.827572 2.441862 -0.105174 -0.397262 3.104737 -0.399439 2.240010 0.811662 -0.197307 -0.184750 2.474704 5.328158 -7.178264 -0.909188 2.847233
以 0.328371 0.490301 6.286286 2.437054 0.599968 0.570071 0.665515 2.954573 0.491336 -1.947058 2.594817 -0.325223 -0.598692 -3.027403 0.804857 0.901388 1.543087 -0.372495 -1.889458 -3.572574 -2.639520 2.067467 2.506930 -0.923387 -1.745477 1.412375 -0.158248 2.134439 -0.342757 2.682796 0.417293 -0.209787 -0.769469 1.251864 -1.677927 0.494645 0.537222 0.009929 -3.725420 0.662663 -0.048523 -2.966745 0.588798 1.379192 1.061647 0.208214 -2.960242 0.713123 0.661426 1.259151
到 0.863507 -1.389478 1.853958 -1.041231 3.846639 -4.646280 0.578019 2.461689 -0.651534 -2.230640 3.604313 -1.273560 0.068161 -2.340188 -3.796723 -0.291240 -1.291506 -0.290908 -2.539772 1.586664 -0.759544 1.749690 1.209353 0.684909 1.721074 3.273778 0.939554 -3.718361 -0.233630 1.106001 -1.691847 1.927900 0.867226 1.760168 1.160805 2.283360 -1.302169 3.133206 -2.808069 2.129755 -1.542569 -0.367745 -0.908056 3.166229 -0.957216 1.242161 -2.852013 1.038565 -0.708377 1.397046
日 0.685654 -1.631586 -4.873028 0.629183 -2.099257 -1.029347 -3.023316 1.611729 2.626540 -7.051526 -0.785986 0.747655 0.386987 -2.588038 0.077378 -3.328690 -0.149484 -2.700612 1.867994 0.038842 -1.889564 1.517516 2.411716 -0.057363 0.552587 -2.056585 2.142635 0.343395 -9.179149 -0.192598 -5.878556 -3.002395 -1.269790 0.317543 1.887240 2.028084 0.986278 -0.044926 0.948963 2.239668 -0.845859 0.400752 -2.715069 1.666334 4.373353 3.265366 4.700420 1.021765 -3.097121 7.049061
对 -0.284726 -0.863776 2.294041 2.775379 -0.050516 -0.129933 -1.446880 -0.001088 3.148197 2.282242 1.070468 1.630065 -1.658104 1.527086 -0.820281 2.183587 1.391239 -0.729832 -0.132110 -2.259059 -0.246267 -1.656085 1.533126 -0.765635 0.030974 0.542376 0.335681 0.831549 0.897597 1.121683 -2.184195 0.060211 2.871614 2.125544 0.030205 -3.831390 0.946110 1.435926 -0.103205 -1.389345 0.675673 0.329236 -3.099835 1.002733 1.131729 1.164444 -0.344117 -0.467920 0.345042 0.617535
来 0.959829 -2.319726 -2.711969 0.392362 1.805671 -2.421141 0.815059 -1.263654 0.603459 1.092529 -1.922735 1.469636 0.117335 2.452737 3.503211 0.819183 -4.929724 0.593567 0.112994 2.087585 2.699091 -1.111326 0.352738 -0.049825 -0.690164 0.711311 4.374537 -1.478715 -0.322281 1.531969 -0.959626 -3.307251 2.032265 0.289319 1.701638 -0.400499 1.187284 0.950800 0.993483 5.095558 -2.052418 1.908620 -4.019663 1.364878 -0.344708 -0.564406 3.765942 3.052241 0.371410 2.278456
生 2.342730 -0.155273 0.740295 0.492828 4.776974 2.315794 3.399563 -7.610061 2.185235 3.572773 -0.441498 3.243771 2.464673 -1.299529 -1.504599 3.577548 -2.046608 -3.769075 5.642559 -2.046064 2.890807 8.117532 -4.316632 -1.872044 -3.567069 0.158247 1.940292 -4.912257 1.057703 1.172094 1.021755 1.103092 2.724108 -2.259539 -2.086699 -0.198934 -0.765897 -1.217149 -0.122917 -2.481909 1.666651 1.421453 6.506429 -2.214949 0.334878 -3.444784 0.519143 0.221939 0.069281 5.870409
民 -2.695063 -1.090395 7.063279 1.528557 2.671105 0.607542 0.579537 -2.394188 0.201345 -3.859497 -1.220614 4.836712 1.629047 0.941625 0.596428 -0.613150 1.218290 -2.784164 -0.749285 -2.220663 5.087624 5.563858 -3.978054 1.846538 -1.348837 0.472194 -4.573692 3.543852 0.229550 -0.028161 -1.457327 -1.098746 -3.087720 0.663308 -0.079302 -3.699582 0.087299 3.766918 6.235240 3.061022 -0.179014 -2.111733 -3.847683 -2.500180 -0.523368 3.874426 -4.265229 1.396624 1.535712 -2.749150
９ -1.572443 -0.825439 0.285041 2.746328 -0.779784 -2.171820 -2.531514 3.888345 3.787619 -1.858308 -1.542146 -0.287888 -1.497990 -6.071879 0.186791 0.047524 -2.411839 -4.299303 0.511121 -0.936595 4.896409 2.254395 1.228143 5.069894 1.392406 -2.603966 1.546111 -1.004569 -2.059480 1.909188 -2.570497 -7.118666 -2.700217 -3.342582 -3.147898 -1.941339 2.272057 -2.991747 0.038374 4.579537 -0.393849 1.246472 0.176889 1.704827 -1.453149 0.679173 4.321453 1.714517 -0.494102 -0.671763
２ -1.121532 -1.360812 1.472170 2.338995 -0.849195 -3.154673 -0.951906 -0.659080 2.839135 -4.703078 1.106094 1.084433 -1.645994 -4.609811 -0.472407 -0.784898 -0.922510 -4.289910 -1.494537 4.597989 1.075349 0.730892 1.154268 4.324663 3.416820 -2.946702 1.100018 -3.708739 -0.786757 -0.510053 1.328187 -6.805147 -3.535478 -0.958601 -0.895644 -1.134231 1.668211 -4.183681 -2.363833 4.142157 0.575278 -1.750157 -1.787152 0.785315 1.652748 0.898508 1.630427 1.045184 0.900583 -0.653810
成 -3.407104 -0.277048 3.836055 0.420258 4.893632 0.933342 2.873378 3.692976 1.165113 0.679650 2.967494 0.205773 0.553671 1.917188 -3.931416 -0.050336 -4.460948 -4.560443 1.062257 3.121739 -2.598549 2.186495 4.941821 -5.327794 -0.832615 2.638800 -1.687715 -0.431673 -5.811275 -1.132716 1.473824 -1.115696 0.521677 -0.916178 1.800298 -0.931469 4.420290 3.261848 2.451056 5.086658 0.026212 -2.010609 2.206278 3.367176 -2.381764 -1.338659 1.283337 -4.828146 3.943974 -3.827134
部 -2.133001 1.054652 -3.999640 4.123465 1.860565 4.246168 -0.128409 -2.056064 -2.306477 -3.009094 -2.266800 1.113082 -0.969424 1.929104 2.756615 2.580170 2.983545 4.270478 -4.744050 4.311956 3.603341 -1.894546 -1.164558 -1.365942 2.490467 -1.536257 -1.790847 -3.928976 -2.614049 0.244441 -3.597439 1.565326 -0.225177 1.930812 2.412753 -4.114021 -2.351367 -1.141145 0.884493 0.005525 0.706781 -4.871902 -3.913774 -0.142109 -0.217279 -3.828009 -5.117291 -2.514912 -2.012222 -4.698554
学 -0.326414 -2.742791 -0.560956 -4.064370 1.008745 2.240666 -1.276173 4.412832 -2.503758 1.159929 -2.686928 -0.668862 3.985326 0.396264 1.149342 3.464512 5.441127 -0.499247 -0.359106 2.369019 -1.149299 0.267325 5.150259 -2.970279 2.277741 -2.672677 -0.153427 2.519513 -1.403735 0.781779 0.149644 1.306214 2.741730 -5.001514 1.980847 -1.178972 -3.867469 -2.088759 -1.693035 2.079267 -3.852506 0.548799 -3.188314 0.570178 5.056809 1.914626 -2.805380 4.504601 4.618847 -4.956023
们 1.342981 -1.914842 5.424643 0.504467 4.205977 -0.284201 -3.611383 -0.609430 -2.295888 4.719359 -0.651872 0.561300 -0.258376 -0.449579 -1.580550 2.257775 -4.263758 3.110507 -1.267512 -2.500467 4.391726 -2.666988 -0.971009 -2.097166 1.032227 4.405591 -0.654598 2.944920 1.254530 0.977945 -6.528254 -0.521952 -0.485535 1.658729 0.458717 -1.101129 -2.262309 -1.185184 -0.001489 -2.133665 -2.611704 -4.017070 -0.088726 4.567501 -0.655541 -1.176203 1.273428 1.421648 -0.343877 2.343625
多 0.950129 0.229452 2.726128 1.597598 0.097188 -5.252221 0.384948 -0.121330 0.916210 -2.277106 4.728072 -0.659927 0.108864 3.242519 -1.790112 3.405889 -1.055849 -2.981689 -4.220864 1.705146 0.089274 3.435412 -0.745828 -0.954811 3.038995 0.363809 -1.203325 -1.529956 1.209389 0.536661 3.027574 -4.283677 -1.392930 -1.205031 1.376564 1.286965 -0.172699 -4.038489 -1.439163 1.418040 0.326035 0.865458 0.985234 1.754011 1.865966 1.924130 -1.187317 5.248063 4.990623 0.845132
进 -3.940297 4.877610 1.331711 -3.017986 3.959661 0.461294 -1.448032 2.221625 2.328348 3.566298 6.614448 -1.539994 2.447214 1.145660 -3.526806 -0.782923 0.764027 -4.124330 1.008007 -2.004324 -4.058456 5.485098 -5.863096 -3.141160 -1.412646 -4.982007 -1.211441 -3.816607 -0.708886 -2.701091 -5.030623 1.045897 3.567289 2.843005 -3.325473 1.822709 -6.123708 -2.190081 0.303767 -0.512303 0.228745 6.150200 -6.358784 2.834427 -1.397088 -2.088468 2.849381 1.059947 0.778547 -0.134732
我 -2.106791 0.844172 0.336646 -4.020156 -0.540347 3.305566 1.658478 3.772338 -1.057773 -1.938742 2.432907 3.025501 2.236964 -1.084909 1.967249 0.803841 -1.661824 2.090334 -0.628751 1.951752 1.596871 2.055098 -1.058186 0.944518 -4.068792 0.972790 5.307852 1.078368 -0.312352 1.427770 -0.311887 0.673265 4.387549 -2.331144 3.478612 -0.263501 4.731655 2.896922 -0.361037 0.261452 2.910361 5.904457 -0.341038 0.494439 1.216748 4.616993 -2.485601 4.986907 2.664631 0.057707
时 0.162374 -0.579612 3.487512 0.582750 0.308937 0.004653 0.391456 -1.385259 -1.247780 -4.392271 -0.997902 2.907256 1.151766 -0.445206 0.447581 2.641154 1.499777 2.977347 -0.929714 -5.224883 0.541650 -0.820797 0.273244 3.742695 0.083440 -1.142938 0.581605 -0.597176 -2.270154 0.943824 -4.334396 1.137709 0.923539 -0.467274 0.152222 2.818131 0.958761 -0.753235 -5.114297 2.057484 4.013279 -2.936174 2.715324 0.501270 2.222958 -2.801625 -2.879107 4.419551 0.139972 3.236387
新 -0.182039 -2.490351 0.620859 -4.855657 -1.181770 -1.622757 0.691745 -0.532412 1.646975 1.792248 -1.862383 -0.017587 -1.062635 0.406408 0.480181 2.359453 -2.964972 -1.610700 3.089266 0.474483 -0.046839 1.569209 -1.768247 1.011258 0.845360 -1.908496 -0.627448 0.094911 1.391271 -2.576217 0.364857 -1.799713 2.944971 -0.938753 1.263620 -0.562208 -3.256006 -2.404888 1.369931 1.842753 2.204953 3.137103 0.539372 0.339043 0.699162 0.926690 3.075499 1.771323 -2.522847 -4.137897
市 0.881414 2.660856 -0.966466 -2.584589 -1.723747 -4.291503 0.743613 2.210153 4.781699 -3.624054 1.591062 -3.829460 -3.072743 -3.257370 4.818529 4.919677 2.500479 -0.722687 -2.077429 5.272837 1.938778 -0.658780 1.407501 -0.900756 -0.995432 0.229831 0.675980 -3.309872 -0.193117 0.144885 -2.193089 1.932295 -1.196606 5.224446 2.697703 0.354559 -5.307209 -0.607689 0.410676 -1.594645 -0.429539 1.223807 5.315146 -2.933859 1.852368 -3.141582 2.583648 0.078009 -3.977210 0.367015
全 -3.940354 0.125630 4.581646 0.958695 2.580336 -2.072813 -1.869308 5.306286 3.548746 -1.081653 2.718547 2.940697 -2.519863 2.975906 2.469296 -3.119618 1.170850 -3.216205 2.327516 0.985943 -0.994121 3.495801 -0.299244 0.379687 -3.277954 0.174065 0.549669 -0.835570 -2.671030 0.174916 2.979458 1.729257 -0.147721 -2.115052 0.294658 -6.491109 1.415744 -2.368682 1.709822 0.919696 3.806084 2.610533 2.180138 -3.301653 0.509991 2.827057 -1.182198 2.207223 0.156458 -0.653334
他 -0.874027 1.189603 0.701201 -2.932637 -1.840774 3.285132 0.914303 1.132461 -3.267817 -1.246185 2.033231 1.476906 2.720057 -2.618551 2.214219 -0.265916 -1.766388 2.938333 -2.306819 1.276832 1.562537 2.043957 -0.220434 1.206507 -2.120958 -0.386816 6.337511 -0.400079 0.275266 0.569893 -0.473600 -0.648196 4.410253 -1.594438 2.558814 0.068860 4.449656 3.428131 -0.279425 0.596875 2.431178 5.333310 -1.382980 0.439916 2.498501 3.512706 -2.247830 4.491642 2.503559 -0.177769
政 -3.982693 6.400714 2.701586 3.553795 5.794646 4.089508 -4.171993 4.939320 3.850477 3.765773 0.389740 4.296662 0.088858 -0.036668 3.566921 -5.677041 -5.598327 -0.686558 -3.452443 -6.711604 -1.131369 0.302794 -4.565143 -0.415702 8.328552 -0.915811 -1.911337 -0.871854 1.075182 -3.272846 -1.278226 -1.431801 0.633291 8.092507 3.623785 -4.382838 -4.838042 0.664784 1.945791 -7.545888 0.543603 -1.132217 -0.384138 1.017430 -1.521417 2.013045 4.264212 -7.990736 -5.624494 -7.694420
实 -1.251514 -0.959870 0.919478 -0.190240 9.161844 1.148132 2.437846 2.431853 0.806546 1.619361 1.995671 -2.942930 4.606272 0.682688 0.108144 -0.554108 -3.087437 -2.515361 -0.288739 -2.965051 0.049357 0.141432 0.201874 3.967241 3.897617 -2.209840 0.414581 4.234651 4.192748 -1.813056 1.388137 2.301912 4.670167 0.576807 -6.707613 -0.606650 -2.198115 4.081930 -5.678157 1.985945 -1.795878 5.083713 -8.374464 2.093779 -3.157698 -4.164008 -1.255358 -0.981463 -2.428268 -4.082523
主 -1.142634 0.237445 -1.486902 -6.246086 -0.397202 2.579580 -6.522468 0.016675 1.310601 0.633989 0.534766 1.144635 0.701228 2.303149 3.461012 2.403234 4.406907 -0.837556 -1.354899 6.979683 -0.001359 -0.989997 2.537683 3.079079 6.921345 3.247549 -0.152776 -0.198409 -5.185343 -5.453242 -1.352314 4.244877 6.999617 4.010624 -3.275228 -3.087639 -1.081380 2.633260 0.907277 -6.882478 -0.097802 0.624152 4.144608 -1.757190 -5.393280 0.187851 -0.394892 -0.567457 3.040026 0.558843
理 0.962142 1.564057 -2.124113 -5.051238 4.547761 3.945785 -2.195212 2.255379 -5.600358 -3.069468 -3.516282 2.143147 1.811478 0.460334 -1.390142 -3.048201 -0.617378 -3.981966 -1.677028 -0.828944 -9.143865 3.242847 -3.611540 2.022355 0.027053 1.732117 -2.082529 -4.289819 -0.063396 -4.828261 2.272066 1.428060 4.455201 0.300420 1.136971 -5.876952 -0.084784 4.732497 -4.037686 -7.568684 4.076722 -0.884138 0.751302 -2.973715 1.859734 -0.285076 -6.193288 -1.435361 -0.896388 -2.522052
展 -4.826306 -3.312908 -1.808231 -3.975791 2.355055 0.346908 3.268133 -2.856310 3.793165 2.676331 1.169922 7.228471 -2.857105 2.784719 0.680958 4.780480 -3.864804 -0.836388 2.668782 0.692857 1.362583 2.511172 -2.308492 3.634924 -2.849812 -2.355533 4.548865 3.503128 1.608996 -0.260333 2.225151 1.119821 1.730503 -1.970179 0.709482 -5.283866 -8.068979 -1.902216 -5.091982 1.385435 2.779067 -2.206714 8.008027 -1.518963 0.653453 -4.693347 -2.229880 -2.892777 -3.349813 3.365201
产 -5.253665 3.928504 0.490151 -1.139207 -3.601153 5.014720 -0.590212 9.205984 -1.370075 -0.718248 -1.895588 -1.660838 -1.123480 3.222632 0.357122 2.016098 4.174714 -5.616122 -1.799867 2.526070 -0.009984 -8.895922 4.304015 2.216331 1.557270 1.411282 -2.108452 2.583331 -1.630944 4.552800 4.315732 -6.876175 -2.359381 2.667795 1.976322 -3.543940 -4.229915 -0.746260 1.534497 1.050281 -1.842714 2.065080 -1.503623 2.396327 0.118189 0.033912 -0.032215 -0.361170 1.433106 -7.537391
方 -0.519860 -0.470184 2.725860 -0.479243 -1.296448 -4.089747 -1.064648 -0.304515 3.169405 1.616414 0.731467 4.948617 -4.519390 4.949844 -0.187700 1.161299 2.697776 4.103448 0.205592 -0.206775 -3.496139 -0.412101 -0.337784 -3.153280 0.726888 -1.326870 -3.078838 -1.943014 3.395350 0.374366 -1.721928 -3.443428 0.002215 -2.879381 0.946288 -4.626805 0.806783 1.284567 -1.406403 1.770004 1.194994 5.753654 -3.917876 -3.173555 1.980263 -0.093321 -7.031938 -2.834758 -1.964593 1.018956
本 0.761196 0.593263 4.636341 1.120249 -0.144407 2.173828 0.007684 -0.044910 1.179730 -0.180439 0.465336 2.274559 1.522902 -0.604412 0.540534 -1.661935 1.305051 1.308427 -2.405978 1.892906 1.749691 1.257360 0.540746 6.196650 -1.902221 -1.330315 -6.238384 1.692499 6.402831 -0.327669 -0.895726 -0.269091 4.327895 2.168177 -1.170057 -0.873131 -1.704674 -5.232936 -6.108046 0.898552 -1.604687 -3.783591 -2.259459 -7.291157 -3.478570 0.895257 0.888270 0.630420 0.652142 -3.445050
长 5.310142 3.438783 0.249145 -0.710109 4.517903 -2.422554 -5.666506 -0.184547 -0.212644 -0.542728 2.206980 -0.883002 -2.986386 2.125563 1.672021 1.972956 3.594324 -1.721104 -0.755412 -0.306327 -3.379711 1.318678 0.378379 5.254673 0.918702 -2.019098 1.437238 -2.375378 -2.160485 -0.682417 3.156769 1.639260 -1.009764 -0.658377 -0.941662 2.027277 -1.961712 -1.295000 -1.769876 -0.511503 0.404687 3.136995 -3.129106 -2.150182 1.876392 4.008105 1.212104 3.155088 0.606072 -5.859607
于 2.553221 1.650492 2.236494 1.470980 0.797163 0.464533 0.168169 1.982946 0.582523 -1.173122 -3.063547 -0.887286 0.029080 0.075572 -1.250378 -1.667833 0.323852 -1.890903 -6.587721 0.768144 -2.439457 1.568251 1.695353 2.406809 -0.000344 2.224253 2.058204 0.019212 -0.929027 0.411994 -2.773830 1.273242 2.962783 -2.042487 2.177356 0.569036 -3.484549 0.506077 0.063063 0.845478 3.942899 -1.368398 0.038533 1.591123 -1.032069 -1.308020 0.806327 -0.828081 -1.718631 2.997919
开 -0.829396 -1.164937 3.540689 -4.133641 2.262831 1.697301 -2.556640 -0.942159 0.537733 1.274704 0.461507 -0.176747 -5.748783 -2.362661 -2.870365 4.727402 -0.738064 -1.782536 3.359499 7.547704 -1.551887 2.563681 1.022088 -6.416376 -0.383244 -5.137583 -0.186576 -2.074370 1.067989 4.015736 -3.684220 -0.567295 -3.151709 2.814412 -5.604756 4.412201 -1.687103 0.284008 4.647958 -0.365902 5.285028 0.847967 0.489817 -0.420833 -3.111375 -2.403612 -1.391031 3.130377 -3.652541 0.192743
公 0.536572 1.401497 -6.826164 1.836662 -1.692440 -7.494091 -0.766843 2.133247 -4.433145 -4.945166 2.734519 -1.094490 0.158632 2.070507 0.869104 -0.114106 -5.159050 -3.487569 -3.215503 -1.189154 0.357002 -0.413253 0.600346 7.946682 -2.498117 2.954655 0.168396 0.571850 -6.377264 -4.588624 3.570032 5.741080 -3.149436 -0.399325 1.454675 -8.371171 -3.968576 -6.795615 -0.450320 1.629719 -0.757712 1.035907 -2.150467 2.133289 2.530016 -1.707635 3.784812 -4.924136 1.900482 0.121894
同 -0.446310 2.388588 -1.255926 -3.282849 1.258891 0.284054 -3.905674 -1.632727 2.652041 6.188059 1.644181 -1.701581 -3.327624 0.554214 -1.795000 1.930253 -4.401861 -3.411671 -1.335093 0.740391 -3.522571 -1.417185 1.223093 1.534099 2.609986 3.451229 4.793252 0.779013 2.252343 -0.925725 1.455706 0.864049 -2.235419 2.852113 -0.940887 -4.156308 1.229868 3.614530 3.331001 2.048112 1.059706 1.483799 -2.549452 2.935288 3.739279 3.461703 2.668218 0.401088 1.192349 -2.456080
动 -1.548782 -0.137654 2.843946 1.370095 0.828721 1.983524 4.167987 -2.787306 5.557456 3.414454 3.428603 -2.633579 2.601604 1.441732 -0.380729 -0.831786 -5.364519 -5.454082 4.359479 -1.214897 4.731724 4.334859 -4.303815 -5.809082 -3.017832 -3.834665 -0.106234 -2.042246 -0.881689 -0.236884 0.813628 -0.203247 3.117663 0.179507 -4.268915 1.410915 -2.211166 6.323229 1.766998 -2.405107 -0.872826 2.802911 -0.410376 0.384590 3.021674 -1.959861 1.178689 2.928280 -2.051747 2.163236
下 0.042528 2.499168 1.650649 -0.572219 0.550374 -2.775503 -0.743597 1.135710 0.583453 1.816563 2.110432 1.104615 -0.043904 -1.220590 -2.168729 -2.795613 -0.998015 -0.431150 0.753590 3.510319 2.432523 -1.461901 -1.940111 -0.338137 1.521547 2.182371 0.814610 -3.557963 -2.095764 3.492595 -1.594926 0.951263 0.364702 1.590382 -1.330642 2.666640 1.070123 0.776887 -2.538567 1.287512 2.261833 0.035451 0.008412 -1.526271 -0.438972 0.667906 -0.389141 1.679456 -0.020995 0.284370
现 -1.311180 1.222356 1.043233 -1.488687 -3.978522 -1.696940 0.910767 1.645489 0.331856 -1.415560 -2.267738 6.234477 -1.867993 2.161935 -0.104105 5.537156 0.472322 -2.361861 -0.635108 0.067475 -2.505954 -1.039072 -3.955260 -5.072896 -2.794116 -3.195121 4.769394 4.108610 -1.699002 2.927646 -4.416141 -3.171748 0.264360 1.175194 0.458380 -2.872181 0.939705 -2.324131 1.617747 -3.778246 1.419663 -2.538595 9.420812 -1.818451 -2.361019 -3.263031 -0.286501 5.375039 -1.156688 1.508389
建 -1.352410 2.536659 -1.134843 -2.634328 1.753871 -5.396204 -4.764429 3.506022 -1.762846 4.274855 -1.441216 2.312459 -2.499716 0.910282 -3.094225 0.206047 -0.245241 -0.696190 2.363636 6.785176 -0.257375 -0.050585 5.185456 -1.427193 -1.912561 -3.999476 -5.691262 4.022697 0.020833 -0.233340 -2.927020 2.145915 -3.180481 4.789707 2.605241 -2.596879 3.052506 -7.025495 3.353433 1.353621 4.577768 1.725871 0.524489 -1.693781 0.847172 -4.254506 0.736618 -0.940311 -2.788500 -6.359876
重 -1.086899 2.662271 -0.265115 -1.815769 5.533957 1.007957 -1.518649 0.762546 -0.052922 4.865912 0.172302 -1.962298 -1.853612 4.801405 -0.707643 3.310901 5.295987 1.834664 1.556537 5.572018 -2.568299 -0.890495 0.420680 -1.214442 3.585808 4.017301 -0.667190 1.543018 -1.342592 -6.283306 -2.401426 0.507984 4.419809 2.194093 -1.428118 -3.050369 -1.941447 -1.755038 -6.490501 -0.623719 -1.687287 -0.324004 4.934731 -0.739459 -3.362368 3.791916 1.316528 -0.333464 1.732206 2.883602
力 -4.136725 3.061752 0.772343 -4.279362 -0.797666 1.774805 0.217785 -0.891055 -0.989218 3.000240 0.840388 0.331976 -4.693293 0.980220 -2.166273 -1.991304 1.850771 -7.434960 -1.733139 0.054895 5.063500 -5.139237 -3.405218 -2.263074 -0.851108 -4.261745 -3.212049 3.959806 -1.693370 -0.423401 -2.478379 -1.493364 -0.530310 1.370390 2.550010 -3.178768 0.847007 1.795427 -0.758093 -2.511322 -4.038564 1.321474 4.894404 -1.077752 5.310031 -0.287661 -1.626246 -0.339249 -1.241181 0.973505
高 2.469239 -2.692803 -0.834623 -5.421880 4.016897 -1.674004 1.185659 0.846672 0.129296 2.281754 3.959177 -1.712748 -1.987002 -0.254976 -3.442038 1.537058 4.389211 -2.422549 1.788099 1.954559 5.042374 -3.342613 -2.410702 2.804249 4.642302 -1.655394 -2.122985 -3.532454 5.198107 0.001782 0.125521 -1.674643 1.139194 -0.759491 -1.452914 -2.695247 -0.134517 1.696101 -0.799730 3.150250 0.809189 -0.024220 2.401108 -1.102937 -0.061551 1.706348 -3.744250 0.449211 -0.421451 -2.548061
法 -1.133999 1.730741 -2.932009 0.374882 -4.029386 -0.046626 -1.107476 5.356256 -0.212283 0.217113 -2.597626 -0.554351 1.243960 1.845579 1.315685 -1.805324 -7.094965 -1.999321 -6.746991 0.644215 -0.428307 5.732273 1.192866 2.302982 0.870200 -0.582043 -1.479079 0.081603 0.584305 -2.930696 -0.607842 6.922170 2.163831 0.429641 -1.130124 -4.454556 -0.844434 2.894544 1.426345 0.479683 -0.150780 -1.821776 -0.614563 -0.864856 0.359144 0.095833 -1.510435 -2.807239 1.826704 -1.502748
关 -9.695765 -3.870092 -1.375858 4.182194 0.797990 5.222034 1.152118 -3.082614 -0.613764 2.553171 -4.359868 3.463367 -4.064943 0.773214 1.871311 0.934990 -2.321511 -2.055960 4.245179 0.196395 0.532459 0.070648 -0.103931 1.543617 1.579339 -1.570059 -2.215750 0.360371 3.386789 -4.383472 -7.468431 0.799736 2.338046 5.014698 -3.428576 -2.882147 3.190941 -1.975138 -4.568726 -2.497497 0.269828 3.050847 -2.867799 -2.936150 8.147640 1.874922 -2.483040 0.112961 3.049513 -2.503042
５ -1.105138 -0.448226 2.095945 2.659972 -0.850249 -2.687140 -1.189399 0.478374 3.192118 -4.438987 0.450224 0.806179 -1.108902 -4.503625 -0.490412 0.172544 -0.334963 -5.044446 -1.465553 5.005481 0.555240 1.218521 0.462320 4.318678 3.799071 -1.700098 1.763736 -3.272328 -0.774976 -0.123461 1.090895 -6.799764 -2.396097 -0.621176 -1.047783 -0.592268 1.925930 -4.069138 -2.674742 3.526803 -0.152317 -1.285523 -0.529111 1.351697 1.168378 -0.153673 0.995146 0.797675 1.743343 -1.216596
就 -2.483034 1.143517 0.176184 -0.529572 0.144429 -0.157313 -2.299465 2.224735 -3.810986 -0.206104 0.310287 -0.475861 0.611000 -0.055774 1.610736 1.512132 -2.155912 -0.489476 1.095284 2.191723 -1.089102 -3.813820 -0.510265 0.783648 0.875907 0.410573 0.570944 2.234946 0.322905 3.312527 -0.455849 -0.094547 4.826803 -0.233913 1.241497 -0.492962 -0.102094 -0.370066 -1.498037 -0.328487 0.411196 -0.839341 0.487964 1.857654 0.404106 -1.026103 -1.609674 3.451389 0.019374 2.247960
３ -1.048921 -0.603549 1.732259 3.215602 -0.425883 -2.442388 -0.748019 0.310445 2.321314 -4.320325 1.037342 0.225134 -1.284263 -4.547498 -0.525923 0.081152 -0.726191 -4.451903 -2.139407 5.525945 0.468425 0.205517 0.379808 3.635395 3.564979 -1.463210 1.505340 -3.671945 -0.410897 -0.164806 1.576208 -6.822164 -2.907595 -0.384645 -0.927218 -0.402987 1.976443 -4.032953 -2.778759 3.546030 0.143532 -1.793114 -0.513700 1.623384 1.452893 0.200299 0.789818 0.642506 1.568381 -1.439377
加 2.629691 3.960160 5.498695 -2.435053 -0.073239 -1.380152 0.318259 0.553906 -0.341933 2.793790 3.943641 1.914374 -2.673719 2.552701 -0.025916 -0.036458 3.376279 -0.536302 -2.921785 -4.078790 1.762252 -0.115193 -1.638598 3.081899 0.407786 -4.232227 -0.353673 -1.150667 -5.180423 -4.667440 -0.545600 0.723961 2.709057 0.818645 5.364225 -0.922079 -5.699562 0.963230 0.056938 7.163870 -2.062375 4.258580 2.869816 -2.619788 1.028144 -2.923472 1.849288 -1.569465 3.413121 -3.729351
分 2.640946 5.159855 0.336717 2.778358 5.122634 -5.379150 -2.172355 2.354589 -1.303335 1.538182 -0.371064 -4.258718 0.789428 -0.858182 1.847506 -2.424495 0.167577 -5.695182 -0.721092 -2.519231 -2.526061 1.388722 1.220244 -4.709169 -0.831236 -2.194294 3.941568 1.076161 -0.257365 -2.060094 1.757272 1.915036 -3.550304 3.556500 -1.043627 -0.492665 2.624172 -0.986969 -3.890176 2.696601 1.594873 7.008047 1.872486 -5.232584 2.598431 5.909401 -1.305127 1.944930 -0.599512 3.557094
月 3.494482 -0.398994 -0.598297 0.633534 -0.243454 -2.111110 -2.527546 -0.961501 3.868419 -3.046849 1.839540 3.811138 -3.344307 -6.138762 -3.582605 -1.458906 -3.938605 0.763620 -0.741317 -2.703691 5.538100 -0.916673 1.519162 3.928030 0.682419 -1.280828 -6.871317 -2.190149 -6.938848 -0.096568 -3.489793 -4.944008 -7.174637 -3.777358 1.439750 0.164583 3.820009 -4.117195 0.461145 4.909886 1.727187 -1.400641 -3.429560 -1.615956 -0.705859 3.098548 5.566492 3.673391 -4.702753 5.520088
者 5.228094 -1.926074 -2.676892 -2.724697 -1.055504 2.771820 2.705116 -1.611534 -2.398125 1.328176 -1.849386 -1.082548 1.886310 -2.533250 2.489206 -4.160347 -0.824185 0.729548 0.358757 0.243935 1.369146 1.967946 2.913382 2.943017 -0.252367 2.890839 1.376432 -1.289055 2.408296 1.962606 -2.432312 0.049032 0.078246 1.566445 0.009378 -1.550352 1.973581 -3.927188 0.497129 -2.298754 1.175483 -2.009341 1.836697 -0.827145 -0.565171 5.302404 -1.021708 3.636909 -5.773533 3.658714
自 -4.580426 -0.038355 5.372276 0.946697 0.299407 -0.044856 -3.498307 2.925635 -4.509685 1.620126 -1.210574 1.293202 -0.477540 -3.876156 -2.608409 -2.073875 -0.659050 0.601973 -4.648427 -2.558614 0.369226 3.024999 -1.871641 0.361397 0.312514 3.128227 0.622372 1.268918 3.276155 3.029195 -3.119446 -1.297268 0.282027 0.117029 -0.352230 2.089286 -7.300077 -1.770423 2.138919 -4.078264 2.507528 3.982123 3.133294 1.123091 2.067616 -0.539724 -1.161719 -5.347720 -3.763020 -4.232344
后 1.353071 -0.250791 1.340190 2.357668 3.479271 -1.868734 -1.548251 1.304237 -1.527404 0.552141 3.385350 4.247049 -0.596362 -1.068309 -4.061390 0.697783 -1.985910 1.030581 0.929456 -1.732670 -1.398015 1.146583 -2.588099 0.196412 -2.233271 -0.820168 2.602962 -3.168758 -1.444420 -0.532292 -2.635045 -0.296410 3.217060 -1.305153 -0.760150 2.396256 -0.138374 -1.116719 -1.240391 2.220265 3.755243 0.666664 -0.430365 -1.813898 -1.136942 0.610898 -0.504571 0.588687 -0.242067 0.661085
与 0.675266 -0.574075 2.680376 -0.048060 0.485117 -0.488765 -1.571151 -2.090480 2.835112 1.054273 1.582979 1.580616 0.189075 2.951647 -1.120480 1.104026 2.485731 -1.449713 -1.991110 -2.198315 -0.663618 -0.391967 2.474484 0.978941 -0.588498 0.844647 0.228636 -0.872617 -1.275747 -0.933841 -0.823072 2.511974 2.091893 0.613934 0.707701 -1.688046 -2.728339 0.774657 1.542379 0.771244 -0.425625 -0.588220 -1.764637 0.126627 1.674870 -1.450411 -0.099765 -0.865414 1.384262 -0.527942
前 1.997114 -0.467565 4.145734 -2.413211 1.672293 -1.213411 -0.098897 0.633039 2.086909 0.169643 1.088293 2.601768 -2.719266 -3.935623 -0.841857 -1.760836 -3.632911 -0.098709 -1.410138 0.084453 3.823383 -6.586548 2.094798 2.474748 0.804052 -1.733982 -0.766472 -2.576622 3.878746 2.422817 1.872227 0.958385 2.660312 -2.903905 1.799798 -1.736010 -1.559392 -0.105033 1.549950 4.131638 6.185929 -2.061672 -1.599344 -1.387008 -0.724851 3.417369 2.034134 0.496881 -2.675823 -0.207169
用 -1.731691 0.543132 -0.056664 1.169440 -2.876058 2.740799 3.161498 0.483283 -0.991098 2.422769 5.127421 -3.431805 -2.268888 2.647939 -2.275171 2.717464 0.917181 -3.753921 -0.126948 -1.355749 3.157452 -0.454800 2.309464 1.436616 1.924080 -2.823962 -1.724761 0.240624 1.388651 4.447635 -1.254000 0.141682 -2.873751 -1.375348 -0.806669 1.091224 0.202422 0.778643 -0.579108 -4.030016 2.816037 -0.721773 -0.411813 0.414207 -2.698968 2.023933 -5.118026 1.050210 0.367044 3.156132
合 -6.395775 5.967592 -3.998498 2.139385 -4.584060 0.757948 2.925687 -2.339690 6.932414 5.301943 6.641623 -1.387772 2.034303 3.991467 1.151230 1.401552 3.291476 1.002316 0.239284 -4.076267 3.610664 1.866733 7.635353 4.123965 -0.165802 -2.987691 -1.806811 0.930905 0.551305 5.349051 -2.378150 6.061102 -0.781280 1.914235 0.485268 -2.875528 0.413645 -4.652339 -0.083242 0.590806 0.155102 -0.359544 -1.182539 -0.418794 -0.121948 -0.038127 -2.476621 0.957943 -5.725953 3.316380
场 -6.859729 -3.725615 2.935679 2.254678 4.908616 -0.342348 0.338625 1.944699 -3.060408 -2.627002 3.612234 1.005126 -1.265317 6.002811 4.247544 -1.830551 -4.853713 0.304563 1.599249 -7.085313 0.541991 -1.362588 1.494907 0.601203 -1.843776 -1.352850 -6.431128 -0.965926 -0.224806 1.072519 3.289920 -1.461101 -3.053397 1.348769 -6.284292 0.659905 -0.583597 1.765540 -0.756602 3.595942 3.827120 0.760289 -0.102329 -1.498292 -1.694492 1.363960 1.701144 -1.356168 2.053598 0.408942
能 0.186433 -0.377015 4.703709 0.056118 3.349225 3.113608 3.297884 2.055730 -3.295459 1.530835 2.763162 -4.456295 -2.361012 4.067850 -0.753115 0.627221 -2.462384 -2.257258 -1.798451 -2.340849 -0.182963 0.889320 2.266120 -0.343566 -1.946456 2.273685 1.495179 -0.168429 1.327852 2.788069 1.452424 1.660976 0.723178 -0.791078 -0.415883 0.462510 4.232160 0.242446 -0.120254 0.040388 -0.001295 0.839741 0.842329 5.673496 -0.243077 -4.000860 -0.353066 -1.473979 -1.274247 1.560785
化 -1.410648 -0.920970 -0.246584 -2.852765 -0.031303 0.562192 6.406851 -0.254006 1.810850 -0.031411 -3.698539 1.068150 -1.371674 1.189249 1.252159 1.144069 3.064332 -3.108076 3.679897 -3.407642 2.515122 -1.661170 3.944246 -1.120832 -0.888592 -1.202802 -0.224054 0.871382 -0.967497 -0.811793 3.001610 2.994552 3.949888 -0.748719 1.272869 -5.603841 -2.054316 1.020696 -1.073554 0.788001 0.089454 5.698465 4.277454 -1.848589 -3.645754 -3.145222 -0.255627 -0.345725 3.995622 -4.828826
过 0.586757 4.497089 -0.701113 -2.125817 -1.070676 1.116589 1.781217 -1.497525 0.342892 -0.885551 3.191540 -3.983245 -4.142615 -6.482616 -4.076834 -3.732121 -3.159714 -0.477631 2.321692 0.322008 -1.714703 -1.262071 0.298856 -1.197448 -0.176600 3.795401 -4.335250 -2.582179 -2.722148 3.858719 -2.929109 0.842130 1.369034 -1.646057 -2.098614 -4.408054 -1.806781 -0.365189 -0.611660 1.482477 -0.370160 -0.779479 -3.649480 4.998261 1.015749 -2.576010 -3.426917 6.681159 1.401585 -0.071356
济 -0.053623 5.898637 -5.038195 -2.971252 -0.578799 1.595292 4.467404 -2.924072 2.469533 3.320661 2.571241 0.691415 -7.541831 -2.008919 0.340444 -4.825932 -3.231781 0.112364 -2.035842 -0.199796 -4.939515 2.154047 0.524142 1.715153 -3.753486 5.500152 -6.548643 -0.234248 -5.348619 -2.030679 -2.036671 -4.164476 3.195489 0.099850 -6.191597 -7.473172 -6.593826 1.581402 3.930884 -1.464660 1.819333 2.053216 4.625768 1.221733 -0.482515 -7.355888 -3.410521 9.513718 -1.376527 -4.029471
定 -0.676657 5.588616 1.083693 1.052024 1.734062 5.299079 -5.578273 2.516367 1.415983 1.924090 0.346842 -1.908920 -4.433991 1.130496 0.583405 3.946770 -2.723460 3.345337 2.862079 4.749080 -0.867152 3.100516 2.567464 1.119496 2.415948 -1.825339 1.350112 2.349985 -1.481586 1.728869 0.157914 2.739589 2.584067 -5.341956 -5.659965 -5.868992 -3.795623 1.794367 -1.722532 5.260096 0.217597 4.221478 -0.050292 -3.444176 -1.352526 -2.854992 1.084121 -3.415948 1.010425 2.433754
报 7.973189 -4.295505 -3.550928 -1.580929 -1.725760 -0.658368 0.916048 0.965520 6.920166 -5.228268 1.263961 -0.827881 -1.533046 1.581471 -1.374123 1.730075 -4.331177 -0.263897 2.824806 7.412424 1.247394 2.477023 1.642636 -2.697762 2.206054 1.053502 1.205696 -0.954067 -2.478260 -2.791705 -1.423498 -3.526343 1.535849 -0.899005 4.396852 -3.206828 3.419524 3.036848 1.718068 -5.691130 1.377500 -6.030344 -2.000286 0.485161 -0.003013 1.627458 2.559942 -0.737718 -5.367070 1.793686
说 2.661680 -1.623574 2.073113 0.520024 1.927023 0.345714 -4.256502 0.643640 0.580196 -0.932582 3.323608 1.180680 0.669028 -2.563276 -1.260998 1.837559 -3.092510 3.371687 0.926498 -1.407007 -1.731199 -0.048075 -0.353846 -1.602752 1.319901 1.140417 1.239442 5.373823 0.831393 2.436913 -2.871027 0.401947 -1.267374 -2.003831 1.620916 -1.415039 1.771702 1.396334 -2.557551 -4.146602 -1.100061 -2.388116 -1.641894 2.524176 -0.633277 3.614586 -0.462252 0.015777 1.717689 0.730173
等 0.902470 -0.166304 -0.520584 1.246173 -1.320572 -1.047771 0.255305 -0.771205 1.280097 0.515202 0.026629 -1.416876 1.151399 2.269765 0.375296 0.136812 2.590701 -2.076885 0.873049 -0.330108 -0.885170 1.579289 1.652323 -0.964055 1.539099 0.405092 -1.571737 -3.056804 -0.429853 -0.066262 1.702421 0.344418 -1.647685 0.373271 -0.575028 -1.071093 -0.808444 -1.515648 0.853105 0.112084 0.301161 -0.630728 -0.348490 0.027393 1.322839 -0.372362 -1.708392 -2.131470 0.758311 -0.671156
面 -3.411500 0.627996 -1.013400 -1.843582 -0.970823 2.555780 2.523815 0.029900 -1.549214 -0.361447 0.205417 -5.108579 1.682011 -1.653556 3.472857 1.015315 -2.129126 -0.802520 -7.990398 0.283091 1.087917 1.566494 -0.409241 -3.363337 3.895013 0.359597 -0.341465 4.721201 -1.537170 -0.111417 -0.364065 2.053531 -0.416808 4.244140 1.015017 1.251259 -2.438598 -0.626840 -2.952071 2.076966 4.682354 1.197234 -1.826015 -0.909538 1.006426 -5.617571 4.409453 -0.648930 0.239484 1.889545
制 -6.625050 6.677165 4.154032 -1.495283 -4.663491 -2.189455 1.629285 2.345230 3.580360 -0.219609 -1.256700 -0.729089 -3.094445 2.877956 -2.401995 3.495945 2.025088 -6.499008 4.071630 -5.395697 -1.055611 -2.256467 -0.143518 -0.655946 0.218903 -1.827941 -2.361976 -1.620609 0.802018 -3.416908 -6.336240 -1.866911 -1.364124 2.570277 -0.123518 -2.843957 3.647381 3.026420 0.941711 -3.629114 -1.969596 -2.018646 2.940551 -2.651197 -0.499964 -1.372988 -3.772986 -0.946064 -2.975747 0.191468
员 0.023488 2.152161 1.904043 -0.179591 0.835299 0.500833 -6.077713 -2.354421 -3.001693 -2.374030 -0.285946 1.478730 1.030340 0.841017 1.146870 1.954041 1.646478 -1.132871 -3.997941 -0.457553 4.322359 -0.871354 -0.054976 0.570221 -1.303228 -0.096801 -0.427585 -4.901927 -0.743495 -0.815972 1.176080 1.306796 0.674881 3.295158 0.275924 -4.237020 1.557680 -2.701674 4.235269 0.503239 -0.517473 -3.079269 -0.416538 -4.006656 0.907144 1.239572 -5.528343 2.929313 -3.892209 -0.851296
机 -0.897946 2.333668 1.497383 0.403479 0.068438 -0.243524 -0.705430 2.831887 -2.809186 -1.985816 -0.783420 -1.899327 1.274989 1.521841 -3.913013 2.425399 -0.628405 0.906525 -5.728171 4.220317 -4.334794 -0.849861 2.681250 1.568749 -5.121598 -1.636048 0.246714 -3.730591 -3.926102 -2.381192 3.593788 3.178840 -1.711832 -1.940984 3.243733 -4.818559 -5.782679 6.208654 0.406005 1.922536 -0.131055 -0.923463 2.124110 5.391409 -2.294590 -1.030123 -0.555401 -2.587103 -2.513652 2.566003
区 -5.461285 0.337891 -5.593934 3.131475 4.918651 -5.129979 1.547218 0.939718 3.309676 -1.604107 1.999084 4.084336 -2.523665 3.150050 3.583000 1.586789 2.132404 0.156130 -1.528478 1.402661 0.574160 1.261287 -1.311275 -2.757580 2.340166 1.138495 -2.818850 -0.170810 -2.928977 -1.134891 -0.210931 -1.375414 -3.688206 -0.941146 -1.557329 -1.351542 -2.615483 1.946767 1.054271 -0.838183 -2.182984 2.975546 -1.382819 -1.852592 1.763556 0.482835 -1.628441 -1.759576 -0.798725 0.451445
得 -2.481397 -1.408701 0.042507 1.931650 1.027832 1.944227 1.056563 0.797130 -7.296507 3.050670 1.457051 -0.359944 -0.701770 4.421805 0.044497 -4.017166 -1.834838 0.575895 0.262173 -0.132773 -0.524023 0.853521 -0.802683 -1.896760 1.700395 0.167611 1.488164 0.578525 3.649623 2.765657 -1.567224 -1.449603 3.506123 2.641407 1.176040 -0.064493 5.439752 -5.208341 4.562195 3.769877 0.932217 -0.227032 1.420524 1.531117 -1.237668 -0.404100 2.697887 0.564963 0.137880 0.981898
天 2.220865 -1.752382 -2.566679 -0.997210 2.910010 -1.601731 -3.349054 -0.363527 -1.990324 -7.189176 3.652806 5.609815 1.434962 -2.266085 -1.775316 -0.398871 -1.643469 3.543625 1.085915 -3.483094 -1.070447 -4.540565 -0.994743 -2.301530 -0.646912 -0.896384 0.138687 0.123009 -7.483289 0.946657 -1.372887 -0.476485 -2.807748 -2.681494 0.915701 3.451590 -0.817051 0.984135 -0.837154 0.235278 -0.147219 2.252349 1.139276 -2.416841 1.235720 0.117335 0.283047 1.460508 -1.635960 2.977340
事 -2.052304 2.740770 -4.209586 1.603870 -1.195609 1.941689 -0.420885 3.756849 -2.226613 -2.459903 -1.410220 3.836092 3.105976 1.721070 -1.685273 0.262537 -3.186185 0.361403 -0.054673 4.807452 -2.146584 -1.006773 1.532773 -2.597402 0.561380 0.440958 -0.130310 5.374319 0.749764 2.604957 0.607938 4.121145 1.154461 2.763246 -3.066884 -2.100737 -1.105051 -1.817198 1.949305 -3.569950 0.270747 -4.865538 -0.508862 2.090494 5.131501 -2.711616 -3.819251 3.269108 -1.836992 0.246880
美 -0.129492 -0.477474 -0.291995 1.530442 -3.980489 2.435575 -0.879010 0.823223 3.707610 -1.816841 3.181827 4.098372 -0.250526 -0.354523 -0.930616 -1.958756 -0.596292 -0.008746 -2.214533 1.704699 -3.008291 2.861951 3.023216 1.558935 -4.162141 -3.068025 -0.138808 0.831830 -0.564270 0.804097 0.222632 0.962118 0.800417 -0.415876 1.366991 -0.576430 0.405682 -1.117565 2.189085 1.096920 1.205590 3.157971 3.428045 -0.018040 1.241776 2.995307 -0.158859 1.104132 3.351422 -0.441058
社 -3.404547 -1.446069 3.114153 -2.880968 2.217844 4.237437 -3.908874 -0.348811 0.566569 -5.448165 -1.160019 -1.086421 3.261092 -0.164207 2.074530 0.297073 2.032881 -0.011797 0.911502 2.582798 -4.544391 4.647536 0.827780 2.504763 -0.714415 -3.079916 -4.616505 4.254447 0.693855 4.299429 1.966226 -0.790108 3.729466 -1.482567 -0.559609 -5.658065 -8.583460 5.356186 3.433919 0.145049 0.031622 -3.272987 1.112881 1.055032 -0.496495 1.065080 1.692855 2.823619 -4.841591 0.921731
电 0.863561 -3.803864 3.984335 3.875444 3.755764 -1.208392 -0.523083 -2.462590 1.323537 -1.036360 -1.452687 -7.237341 -0.291124 0.350357 -0.882022 -2.376651 0.578358 -2.803614 6.858942 4.115389 1.827036 0.715541 3.768292 2.197721 -1.046069 -3.804503 2.773731 -1.199146 0.413675 -1.250901 -2.012679 2.977246 -4.349190 -0.380082 2.158913 -1.831208 -5.817830 -3.824105 -6.245151 -1.559122 0.651521 -0.477410 -2.407916 -1.077033 -1.733094 3.989908 4.005022 -1.324355 -1.734738 1.695253
也 -0.428134 0.122530 1.462053 0.372290 0.793757 -0.281743 -0.138831 0.479140 -3.092792 0.151538 1.218259 -0.733306 -0.800371 2.054729 0.005939 2.309471 -1.516059 -0.010099 -1.812170 -0.225310 -1.233893 -1.407279 -0.646325 0.684462 0.613653 1.183996 0.159842 0.883764 2.462074 1.901929 -1.780176 0.618812 2.713819 0.227269 1.219793 0.132243 0.868828 0.755226 -0.682674 -0.017002 -0.420870 0.444141 1.576389 1.102983 1.075972 0.688510 -0.804616 2.578296 1.288787 1.843546
小 0.949889 -0.198050 -1.941971 -2.386030 1.972415 -2.573752 -1.141234 -1.401199 0.243086 3.673411 -1.115662 -1.217814 0.264622 -0.737097 -0.175175 3.021173 -0.811597 -1.798121 0.602699 -0.293677 0.630691 -2.246107 -0.701889 -0.967397 2.453425 2.222010 -0.523762 -2.940202 -0.774881 -0.640356 -0.054463 1.247757 -4.298078 -0.853777 2.341668 -0.175327 3.493579 -1.971119 2.138611 2.496768 2.710926 0.499782 -1.576144 2.622044 -0.261687 0.579700 1.142705 0.484989 2.646708 -1.998281
文 3.052068 0.517106 -4.709360 -3.318997 1.379509 -0.263074 -3.435310 2.173698 4.560087 -2.058025 -1.030603 -2.642273 6.355086 1.720554 -2.742335 1.733598 -3.543059 -3.208210 -1.953717 -2.534280 -1.643413 3.623050 -0.726765 -5.085985 -3.331246 -0.670453 -1.383007 2.509224 6.100633 0.883776 0.111347 -0.368044 -3.954757 -0.086621 1.575061 -0.784724 -3.810521 -2.323151 0.697168 -4.824758 2.739999 -3.225382 0.094880 -0.248871 0.602822 -0.121775 -2.945288 0.342491 -1.396846 -2.843950
而 -0.113197 -0.005287 -0.041431 0.271199 -0.981044 -0.470662 0.360358 3.206942 -4.135946 -0.848891 -1.234680 -0.495492 -2.333408 -1.315104 -2.400567 0.869303 -1.293337 -0.847566 -3.192461 -3.214488 -1.328851 -2.190735 -1.836269 -0.455550 -1.665432 1.885298 -0.369185 1.458702 3.740586 0.564735 -0.221421 -1.953900 3.093602 0.262297 -0.075447 2.134792 -0.142734 1.086506 0.068039 -0.202037 2.666390 1.934715 2.582764 1.357307 1.470297 -0.883123 -0.857545 1.584832 0.376652 1.431329
体 -4.151977 -5.073061 -0.639617 2.035440 4.037363 6.987687 -0.205781 -1.030222 -2.771854 -0.850439 -1.289643 -1.575509 4.818177 0.177680 -2.002794 1.769295 -3.766402 -1.304930 -2.427211 0.775531 2.886109 1.190623 1.571508 -0.344857 -2.555799 -2.259447 -5.574307 -0.148680 2.756008 -1.160531 4.133348 4.260452 1.157945 3.714854 -1.362944 -1.460073 0.728722 -2.139787 -0.892876 1.742664 2.264663 4.851256 0.291951 -1.485327 2.106950 -5.480070 -0.008637 -0.206630 -0.248662 -4.492155
６ -1.266194 -1.144076 1.302584 2.695950 -0.364739 -2.435999 -1.854954 1.151517 3.323969 -4.246749 0.286843 0.326336 -0.800803 -4.859756 -0.161168 -0.113348 -0.487736 -5.002021 -1.271614 4.899611 0.506995 0.790457 -0.166805 4.531671 3.634186 -1.712281 1.577276 -3.147026 -1.025216 -0.637032 0.376576 -6.407503 -2.453653 -0.922216 -1.148116 -0.865553 1.648338 -3.610888 -2.504876 3.035761 -0.100941 -1.174448 -0.731582 1.118598 0.735643 0.777876 1.499335 0.556530 0.900755 -1.302896
４ -1.316798 -0.631054 1.122985 2.805783 -0.701919 -2.658736 -1.333789 0.504127 2.744875 -4.244957 0.926817 0.058981 -0.931978 -4.329400 -0.378444 0.100517 -0.101138 -4.778647 -1.946424 5.057891 0.558969 0.405219 0.311727 3.694247 3.361919 -1.509716 1.836404 -3.810675 -1.111263 -0.544714 1.452921 -6.373412 -2.542222 -0.645857 -1.272675 -0.592538 1.999768 -3.688469 -2.632979 3.401689 0.058151 -1.214935 -0.661887 1.314916 1.153760 -0.017735 1.057254 0.505530 1.656370 -1.087882
之 0.665848 0.977851 -1.056662 1.685076 0.617822 1.501389 1.479979 -1.658271 1.149620 -1.948456 -0.370653 -0.029238 0.600684 1.241519 0.848405 1.095850 -1.430537 0.306573 -0.225936 -2.380033 -0.117332 -2.138320 1.215773 -1.001735 -0.919557 1.057588 0.586780 1.417644 0.882852 -2.561329 -0.744308 0.256591 2.849254 1.631599 -0.778900 4.245245 0.259420 0.566029 -0.218470 0.126737 0.137366 -2.118269 -3.241345 1.890734 0.773292 -2.431528 -0.210100 1.601586 2.051679 1.319279
利 0.165967 0.121816 -1.455492 2.849711 2.414511 -2.060010 0.992746 -1.932753 -3.792534 3.696745 -0.967181 0.102075 -1.801988 2.233247 2.358677 -4.979435 0.313879 -8.026534 0.722160 1.103769 -4.721683 -2.028734 -0.055374 4.633674 -4.331911 -1.822885 0.687069 4.364776 2.216464 -1.374965 -2.076013 -2.333080 1.524850 1.376397 -0.271495 -5.121071 -0.950667 -0.934199 0.899892 2.005208 -3.046665 -0.146641 -1.068425 0.172183 5.814496 2.151886 2.661844 -2.584059 1.488592 1.312870
务 -2.859582 4.465909 3.575258 -0.633680 -3.027983 8.638355 1.593348 5.320346 -0.003609 1.641705 -1.747134 1.473450 -2.763437 -2.016428 5.191757 0.385426 0.432378 -5.252400 0.582647 3.646154 0.732588 2.710572 1.978350 2.991657 6.554216 -4.487363 0.849325 1.078342 -5.901854 -1.236461 -0.020680 5.949638 1.054843 2.894347 0.193216 -1.016433 -1.975878 0.950329 -2.019560 -8.180220 4.154031 -3.825695 4.198835 0.327580 -1.622518 4.426077 -2.903279 1.742894 3.474732 -2.602123
７ -1.646066 -2.126036 1.645097 2.915013 -0.714169 -2.204370 -1.431379 1.253670 3.399762 -4.555552 -0.145118 0.432250 -1.781927 -5.187805 -0.826568 -0.311338 -0.216476 -5.115033 -0.715282 4.136167 1.146766 0.830900 -0.023805 4.676243 2.849605 -1.666567 1.649691 -2.998270 -1.128051 -0.126118 -0.138642 -5.773483 -2.258044 -1.515495 -1.615830 -1.535607 1.540440 -3.439234 -1.860385 3.158023 -0.875294 -1.103962 -0.536639 0.839994 0.076666 0.728822 2.220221 0.588894 0.923856 -1.666076
好 -0.515608 -0.090764 -0.592392 -1.639161 3.720687 0.536229 0.718408 -0.187484 0.127025 3.096753 3.138005 -0.133496 1.876228 7.735705 -2.494914 -0.078050 -4.057473 -0.019272 -0.237168 -0.865741 -0.014346 -0.235696 -2.669678 1.736865 2.599488 2.374583 -1.022379 0.839600 1.687701 0.300682 -0.775669 2.601856 2.615590 -2.274021 4.252928 1.646495 -0.890402 1.802919 -1.360971 1.242641 -1.680575 2.013443 -1.357381 0.227761 1.383643 -1.699042 -3.392599 -0.081141 -1.888614 -0.297397
： 3.877820 -1.905794 1.111331 0.511762 -1.960446 -2.010727 -1.619321 1.553242 1.053988 -2.792249 1.389122 -1.265815 1.809474 -2.699090 0.263859 0.610578 0.230659 2.626980 2.172721 1.116704 0.998181 -1.510445 -2.122548 0.774752 -0.564792 2.702174 0.120841 2.612470 0.034404 -0.350816 -4.430309 2.247992 2.425084 -0.961580 0.664096 -1.931470 2.065694 -0.924974 -0.017340 -1.304820 -0.757539 1.144205 -3.228316 1.429323 -0.994772 0.803630 -0.558017 0.400970 0.929187 -1.443041
将 -0.479015 -0.485527 1.868064 2.251780 0.893180 0.490118 -1.311418 0.605297 0.540788 -0.852571 1.961122 -0.007632 -1.279070 -0.755341 0.241042 0.159991 -0.547503 -0.451925 -0.645670 -0.365456 -0.778793 -1.375149 1.120511 0.109235 -1.424385 -0.938286 0.882725 -0.175711 -1.143356 1.162554 -1.638195 -0.958091 2.444029 0.500244 -0.198885 -0.285591 0.377519 0.217487 -1.089751 1.460354 0.507468 -0.639609 -1.733923 0.109737 0.538797 0.010702 0.048967 1.129139 -1.037431 1.350392
资 5.785436 -2.384369 -1.644267 2.618598 -1.012619 1.082051 6.760382 3.980709 2.145290 3.477024 -1.581594 0.679112 -1.243141 3.066750 0.733497 1.240062 -2.819849 -9.411777 0.654228 0.226369 -2.443617 0.790696 3.281340 0.851526 -0.710104 -0.758631 -0.044429 -5.162271 -4.051661 -2.257992 2.081657 -4.396457 0.534374 3.029427 4.544125 1.408028 0.507072 3.350081 0.157200 -1.558691 2.292641 7.452216 4.167377 0.569760 3.993920 -4.055884 -0.311986 -4.999188 -4.425687 6.906722
队 0.652286 -0.083064 -1.308401 5.159185 2.844491 0.576571 -0.808982 0.417544 2.217008 3.524258 4.426123 0.228637 -2.562769 -2.364008 3.573930 -1.833446 0.370206 -0.196995 -3.308749 1.201705 2.078404 0.061977 -0.499625 -5.732520 -4.289192 -3.049284 3.334012 -1.233247 -5.110460 -2.741993 1.805625 1.667037 -0.712916 -2.207554 1.272822 0.193051 3.873022 -0.231722 1.648942 2.090897 0.679295 -0.877769 0.432861 0.787608 5.471734 1.293255 -0.680151 -0.700102 -0.183679 0.174877
平 -1.353267 1.112786 -3.268772 -5.917301 1.757596 4.956331 1.900969 0.134072 1.216076 0.383934 1.137622 -1.496530 -1.150565 -2.282116 4.342285 -1.592530 5.086550 -3.902307 -0.388640 2.196913 -2.100675 1.222216 0.610463 1.909525 2.877970 -3.245111 2.696919 3.915616 2.057861 4.222141 1.638537 0.178016 -3.422722 -3.079927 -1.818142 0.435987 1.625457 1.169828 -0.642695 4.005759 4.013617 -2.456315 -2.596988 -2.706237 1.544929 -1.089104 -2.179654 1.146787 0.755771 0.797077
总 3.919499 4.447919 0.037623 3.212648 0.277393 -0.711648 1.410466 -1.688231 2.424026 3.407090 4.260008 0.388096 0.682206 -1.038155 3.086954 1.161593 4.300663 -1.018140 -1.388858 -0.645592 -0.922964 -0.446214 3.795858 5.251829 3.413029 -3.415441 3.765375 0.017927 -4.790017 3.590599 -3.108805 3.535276 -3.325120 1.080159 -1.469351 -4.361392 1.448756 -2.545370 3.083853 0.891902 -4.694716 -2.683380 0.352394 -1.640540 -2.471308 -1.328251 2.066270 4.603837 -2.864884 -5.208190
从 0.591893 -0.063247 1.271902 1.027045 1.345365 -1.523531 0.751300 0.768874 0.095096 0.701361 0.611267 1.438264 -0.353783 0.553673 -0.360810 1.873871 -0.613631 -0.657205 0.676551 -0.680877 -0.038961 -1.098310 1.512250 -0.506133 0.425242 1.471167 1.352821 -0.014020 -1.615851 1.306010 -1.241223 0.730466 1.281091 -0.624169 -0.764089 -0.785366 0.754673 -0.146042 -1.520460 0.069580 -0.479563 -0.431770 -1.678970 0.377061 -1.290740 0.482560 1.057902 0.263221 1.454427 0.883309
８ -0.803179 -1.194883 1.864683 2.389826 -0.653375 -2.555255 -1.320489 1.150062 3.195338 -3.869592 -0.010050 0.507600 -0.897030 -5.154035 -0.781575 0.202486 -0.702220 -4.536717 -0.812239 4.091018 1.325975 1.158352 0.254608 4.420070 2.901126 -1.668676 1.995307 -2.789685 -0.756006 0.039680 0.039053 -6.532322 -2.212439 -1.674869 -1.750854 -0.935388 1.641983 -3.383822 -2.011656 3.734480 0.196741 -0.902396 0.216348 1.329158 0.641913 -0.069465 1.048387 0.687220 0.910312 -1.323205
心 2.013592 1.511731 2.389309 -0.352641 3.808634 1.095215 0.757791 -2.520125 -1.051253 1.566958 -1.074179 -1.880292 0.237892 0.490442 -1.226377 2.559191 0.550220 4.113328 -1.425488 -1.414358 3.932145 0.807254 1.928235 0.166840 1.118717 2.084368 2.831062 5.106316 -0.085346 -3.406135 0.157630 4.958364 -5.375703 -2.325587 -0.624495 -0.967627 -1.523470 0.312288 0.537518 -0.100305 -2.103223 0.685377 -0.434977 2.246235 -1.492337 -1.775536 -0.580724 1.492539 -1.445417 2.262341
可 1.155332 2.479412 -1.853776 -1.114482 -0.578324 -1.835866 0.631814 -0.227664 -4.038186 0.208877 0.951816 -0.083280 -1.082690 3.338526 -1.337153 -1.745440 -5.447797 -0.596863 -1.676354 1.235417 2.621152 -2.323844 -1.020294 -0.666557 0.899631 -1.569359 2.184230 -1.819992 4.300662 1.297684 -4.258577 -0.761184 4.188102 -0.645948 -0.220919 -0.384116 0.623451 -0.593976 -0.031903 -0.072314 -0.613349 3.530448 1.234315 -0.750616 1.239258 -3.110925 0.479410 0.624823 3.466609 2.626475
外 -0.034540 1.165917 0.717139 3.155846 -0.673628 0.538090 1.974128 -0.067933 1.513555 0.048923 2.500637 5.361217 -0.513782 1.788393 1.342024 1.148098 0.729424 1.110848 -1.121633 0.967189 -1.055484 -1.037223 3.442149 -0.871819 -3.732924 -2.536382 0.662467 -3.697527 1.633428 1.388048 -0.317927 0.876295 -1.774224 3.908050 1.710765 -4.012155 -1.338515 -1.141509 0.007149 -0.445749 0.472140 -0.553007 0.396190 -1.114964 2.576576 3.269392 -1.059211 -0.923188 3.799325 -0.418796
各 -5.915149 -1.370439 0.773498 0.669483 -0.770274 -1.252583 0.132317 3.042593 4.475618 1.363573 3.353763 -0.092703 1.081335 3.390217 2.381129 3.364660 1.436916 -1.385355 -5.360578 3.888790 -0.056639 3.669428 -1.750263 -0.372409 1.733928 1.712199 -0.563065 -1.773588 1.743232 -2.450779 0.662659 0.810557 -0.626096 2.692326 -1.650802 -4.368769 -0.761638 -0.410823 -1.383562 -0.995720 -1.035161 2.622015 0.229383 -1.620203 3.917286 1.033841 -2.010369 3.060953 1.067364 -0.705221
问 -1.247766 -3.244283 -3.758925 -0.897545 0.901543 1.487259 -1.502820 2.414704 -0.025459 -1.712209 1.361128 6.988323 -0.785364 9.634274 -0.504544 1.771914 0.018093 8.439622 -0.899983 -1.369300 -0.654468 -0.728589 3.226738 5.037530 11.040120 1.617943 0.264889 -3.314729 -0.582164 -4.929318 1.904109 0.044100 2.191511 -1.824734 -3.864698 -2.713940 1.786994 -0.245850 2.483980 -0.383487 3.326769 2.874819 -1.779638 6.551464 -6.457328 -2.342104 -1.472505 1.450654 2.960298 5.234405
企 -7.289357 2.749888 -4.536456 3.154795 -1.217634 3.215783 -2.038967 5.574920 -2.806783 -1.300695 -2.482608 -0.174195 0.153014 -0.850142 2.694731 3.547450 -0.967237 -3.255902 2.795089 6.678520 -0.591549 -3.747665 3.427744 2.754658 0.603809 -0.015365 0.523493 4.299554 -0.273735 1.851650 4.639096 -1.190779 2.543807 5.120707 0.094410 -3.226996 -5.833644 0.174923 -2.118130 -2.108261 4.092914 1.698847 4.012291 2.905802 4.098500 -2.522741 -4.746157 4.101404 3.937101 0.431875
科 -0.001762 -0.684448 -4.469317 -7.266104 2.401078 0.920794 -2.158227 -0.352305 2.704654 4.992088 -2.083389 2.489961 -3.445892 0.435921 2.494505 3.770129 -4.551857 -5.283612 -2.854986 -6.544987 4.153348 4.373682 1.135574 -2.109466 3.056748 -0.286436 0.675905 -6.264848 1.945679 -4.189182 -1.181154 -2.487965 -1.157695 1.641513 1.114300 -2.738137 0.673174 -2.888252 2.649559 -3.960350 2.342399 -2.999177 2.749876 1.752283 -4.039665 -0.599952 -2.679682 -3.000684 2.895283 -0.486882
种 -2.615275 1.230204 2.304460 0.814680 -2.060672 -1.310654 0.722163 -2.192868 -2.489683 0.280613 -4.406009 0.128643 4.601305 -0.081226 -0.528285 -0.911472 0.561800 -0.668616 -0.884266 -3.373221 0.504101 -3.249950 2.306668 -4.232370 4.485111 -0.124545 -2.944702 1.141197 0.154230 5.189196 -0.480678 -2.286352 1.621207 -0.283420 -0.155992 -0.979696 -2.745259 3.121155 0.815978 2.465505 1.261684 5.393813 1.456806 -0.609727 -1.177483 -3.406327 -0.712833 -2.868130 0.188043 2.881347
子 -1.579524 -2.968086 0.279610 -1.868179 -2.090662 4.306222 1.208091 -1.430912 -2.138353 2.716972 0.400157 0.482335 0.632321 -0.451329 -0.027237 2.774030 -0.390377 0.759912 -1.389533 2.033330 1.058146 -2.935417 -5.171993 1.392200 1.160137 3.857683 1.363203 -4.839073 0.450558 0.134203 0.819295 -1.402615 -1.789064 -6.892740 5.142179 0.688314 2.818433 -2.902839 0.658657 0.234529 0.752665 -2.535650 -0.570143 1.341531 -1.286375 0.861525 -2.748461 -1.255716 0.144308 -0.308902
代 -2.106690 0.838731 -3.470632 -2.643363 4.091889 1.288028 -2.360849 -1.822407 0.499238 -3.498840 -0.938689 -3.381200 4.827004 -0.738005 0.313524 3.851349 -3.580824 -4.404073 -1.917093 -1.888254 0.873490 -1.356561 4.065520 -1.716255 -0.481860 -3.396306 2.115091 3.853580 0.966165 -0.444541 -1.122257 -1.710009 -0.968530 3.687818 -4.259863 -1.629617 1.186598 0.303831 4.332154 4.678249 1.810615 0.610895 -5.003157 3.253174 -4.546136 1.027692 3.129515 5.268338 3.833729 -4.381473
元 4.177230 2.601574 -1.556900 3.455453 0.027281 1.933691 -1.686164 -0.899339 0.770811 -5.573410 1.143317 0.032656 0.216452 -3.086296 3.300070 -3.618140 -0.848714 -0.487089 0.131405 -1.174345 -0.670952 -2.397486 4.388118 4.120932 2.718187 -5.856093 1.118497 4.135172 2.448376 0.972032 3.392659 -9.764859 -3.977985 1.592323 1.886887 -0.808630 -0.364173 -0.215967 -0.892405 6.077540 0.082488 2.726852 -2.155832 -1.004213 1.194234 -3.288170 -1.620104 0.963451 -0.286291 5.651112
金 -0.466441 3.833699 1.610189 1.117681 -0.773519 1.662817 -1.061525 -0.578131 -0.478062 1.920070 0.914431 -1.409606 -1.582589 -5.177659 -0.972775 -1.562922 2.133582 -0.048902 -1.961787 1.462481 -0.725983 -0.875528 8.790071 5.302746 -3.631509 0.287120 -5.124084 -1.314245 5.741148 -1.707968 2.323595 0.719191 -1.083696 7.187505 -1.474743 -0.880708 -3.780862 -2.443319 -2.243430 0.672954 -1.360998 -2.559766 0.978038 -3.860998 -5.155965 -0.282743 -0.792430 -1.100387 1.277191 -0.107766
设 -5.873732 0.475195 3.027292 0.112790 4.374175 1.324258 5.669206 1.052910 4.333740 -2.415525 0.485318 -5.198919 -0.451942 -0.248717 5.737363 4.917179 0.381427 -3.597681 2.282317 -4.146103 -1.667862 3.645069 0.583803 2.286198 0.275019 -1.595987 -0.585641 1.129992 -0.910787 -6.968313 3.612867 -2.754143 4.580521 -6.690576 1.957874 -2.136065 -2.232006 4.949997 -7.386898 -1.135453 2.236099 -0.914037 -3.443099 2.082875 -0.042659 -2.611337 -5.370330 -3.874680 -2.560897 -2.804356
北 -3.372881 0.375356 -2.857381 -0.555928 1.392706 -4.642211 -4.331321 -0.706415 2.199132 -0.681882 1.255935 2.344222 0.557029 -4.172591 1.963587 -0.020317 -1.045532 -3.066056 2.136698 3.041677 3.136993 -1.098867 1.536965 -2.766301 1.913006 -3.061957 -2.880213 1.307419 -2.026818 -2.030327 0.984634 2.150840 -0.354212 -0.232190 1.141081 -0.176386 -6.377238 -0.712975 0.014484 -1.668204 1.530706 -5.170519 -1.112068 -5.125861 4.666830 6.454158 8.746222 0.505428 6.015573 1.989666
度 0.189310 2.611118 -2.434979 2.564845 1.818925 3.089070 1.497549 3.841962 0.235828 -1.451857 -2.654683 -4.084267 -0.592900 1.964942 -0.810097 -2.979782 -1.562277 0.971228 -0.367415 -1.495480 -0.112807 6.624618 -2.788044 2.253755 -2.348670 -2.329057 -0.784873 0.934130 -0.066943 3.044941 1.431220 5.286985 1.552986 -0.876300 -3.167378 -3.491672 -2.610858 -1.631627 -3.378890 6.610964 0.579299 0.196551 3.122241 6.052949 -2.797412 -2.141285 2.697346 -1.514061 0.676054 -0.403319
十 1.623907 1.893315 1.054538 4.104427 -0.261360 4.814776 0.036258 -2.268732 4.295659 -3.976608 -0.277089 2.082732 -1.844490 -2.100945 -0.377201 0.632894 -0.971614 0.228403 1.532514 0.662234 0.841343 -1.693650 -5.162618 -1.483860 6.459417 2.468004 0.477453 0.532639 -3.243933 0.939738 1.400797 0.809011 3.771390 -0.794773 3.722002 -0.151491 -0.787847 -5.159911 1.852321 6.787203 3.516288 -2.786882 -1.458075 -0.042682 -4.189981 -0.852747 -2.816464 0.170614 -0.391299 -2.911350
其 2.266282 -0.304440 2.777103 6.194392 0.485480 0.841572 -0.638700 -0.680282 -0.406296 3.055801 -0.381218 0.765517 -0.676460 -0.535909 -1.535839 3.596515 0.123108 -0.293964 -3.654054 -2.757358 0.036394 -1.495544 1.361710 -1.866986 1.052610 0.748534 -1.432235 2.643888 0.417064 -0.219022 -1.970895 -1.132107 -2.112349 1.529248 -2.350193 -2.123413 -1.288011 -2.859762 -1.539087 -3.003060 -0.569652 -3.232742 2.234931 0.659928 0.252318 -0.570119 -0.430760 2.119613 1.898674 1.668148
表 2.795668 -4.469797 2.821636 -0.953895 2.535030 -1.986992 -3.864593 -3.451449 4.117109 -3.261364 4.998114 5.872592 2.933786 -2.655673 -3.783119 2.115417 -2.709413 2.943969 -1.920936 -1.767721 -2.600549 3.022342 -0.901690 1.548535 0.762875 -0.261009 7.236670 3.731788 -1.002882 0.567195 0.805162 1.516183 1.855154 1.154859 -0.060005 -4.951729 -4.172847 0.532037 -7.871811 0.574116 0.335059 -2.220102 6.553894 -0.338296 0.965331 -0.261797 -6.016819 -2.682257 -3.935117 -2.181784
当 -2.164714 0.634326 -0.906419 1.483179 1.055163 -0.836765 -1.712979 2.223948 0.253927 0.315048 5.073383 0.842367 0.045202 1.590280 -1.813556 3.561224 -3.155506 -0.401652 -1.598777 -1.957365 -2.092605 0.348523 -2.096644 0.279935 -0.940175 2.279846 4.846188 0.745676 -1.549225 0.983780 -5.617485 -0.764044 -0.100448 0.655739 -0.854638 1.010357 -0.766281 1.104172 -2.124321 -1.765897 -1.589838 0.445718 -0.288051 -0.149792 3.230047 1.257087 0.004651 0.695270 1.131756 -1.990640
提 0.626388 3.602702 3.886691 2.157749 -1.831337 1.223035 0.192355 2.478003 -1.537213 0.024239 -4.104503 -1.082288 0.124666 5.634499 7.240796 1.856184 2.037721 -1.695344 2.171958 -0.503648 -4.343286 7.037491 -2.447532 -4.338699 -2.786299 0.347132 4.572923 3.787902 -5.574522 2.263380 -4.718171 -5.636709 1.419025 1.817016 -0.697849 -3.444482 -1.575684 -4.488063 -1.720736 -0.125106 -2.813215 -2.010815 0.289680 3.881784 1.772694 -3.840047 2.379278 -1.959213 1.680060 1.325809
两 -1.850836 -0.616941 2.557617 2.982956 -0.367631 1.185799 -0.961481 2.160888 5.759307 0.425882 1.826707 1.665684 -0.088584 0.221933 1.067559 1.736879 -2.129730 -0.632588 -2.312164 4.047104 -4.310105 0.673355 -2.068342 1.102956 -1.053057 0.158370 1.407720 -0.261603 0.908534 -2.135163 -0.046474 2.557281 1.876604 0.296282 1.952381 -0.711209 1.787423 -2.071229 -1.370278 2.580246 1.530460 -1.105436 -1.806575 2.430267 -0.301684 -0.964039 -0.931444 2.489732 3.971267 -1.572927
世 -1.934766 -3.561824 -0.832983 -4.193888 1.113059 2.504087 -5.025999 4.277932 7.701091 -3.278875 -1.969959 0.082926 2.136539 -9.312540 3.318884 -0.286010 -2.695143 0.238334 3.467118 0.036847 -1.761767 -0.674916 -0.781604 -4.330860 -5.450706 2.495011 -4.249712 -1.082305 5.748424 -0.230412 3.652879 -4.349453 3.946859 0.870203 -1.389937 -4.240787 0.038535 -0.218193 -4.412869 2.662336 -2.662734 2.810756 2.450316 3.175092 7.569204 4.105531 -0.232511 -0.042629 -2.977659 7.535721
万 2.900893 4.838299 2.375485 1.870273 -0.798953 -5.259147 -0.549739 -2.951991 1.055765 -4.676974 2.281511 1.073149 1.658496 -4.383630 -1.195029 -2.243828 -1.173779 -5.530388 -0.481131 2.431861 2.246816 2.068475 2.126712 -1.066409 3.106322 0.650921 -0.911170 -1.822719 -2.935931 -1.118092 2.228455 -5.141657 -3.778656 3.401099 1.697542 -0.354778 2.104898 -4.600222 -0.169855 2.186691 -0.018917 2.190305 1.350183 1.743261 -1.135716 0.049623 0.490115 -3.054721 5.703299 4.620155
农 -2.057572 0.134211 -4.056180 -0.702122 2.564440 0.337705 -1.126427 5.197434 -0.814034 0.854937 -1.593684 -0.977111 1.402059 -2.775471 4.313727 2.049367 0.839136 -3.956307 3.268529 5.730788 3.529321 3.325082 -0.077234 1.962467 2.774650 0.990009 3.505800 2.264884 -0.379539 1.378708 4.107149 -1.336061 0.229789 5.725402 2.434797 -2.419275 -6.031645 -0.019996 0.424958 -4.402757 1.939172 3.299359 3.132936 1.459525 -0.132420 -5.067791 -0.860087 3.496728 1.268549 0.827336
明 -0.251417 -2.914785 0.334494 -1.818429 -0.578662 1.151757 1.272036 -2.421027 1.624555 -2.082000 -1.184969 -4.315328 -2.447196 1.583113 4.087997 -1.150088 0.199077 -0.382757 4.133585 -0.838281 1.615744 -0.459495 2.182199 -0.125801 3.148810 -0.712316 2.833718 3.355419 0.821613 -0.834391 -2.882769 0.512354 4.883027 -2.149121 -2.870020 -4.115052 5.885981 -1.122897 1.004611 0.069163 1.117265 2.849385 -0.370158 -3.119409 -6.507780 -0.055537 4.108714 3.501584 2.721917 -4.588621
里 -2.144787 -1.204553 2.384690 -0.438666 1.950493 -2.736185 -0.101626 -3.270755 -1.221416 -3.375045 -1.212533 3.098319 1.684654 -4.740578 3.996531 -2.338589 -0.592463 0.057993 2.964371 1.238262 -1.040397 -0.742837 -0.094497 -1.432754 4.807859 -2.819232 -0.243022 -1.313167 0.702785 4.909523 -2.795082 -1.258118 -0.764663 -0.848296 1.073449 3.279808 2.525260 1.824296 0.133414 -1.871104 2.709035 -0.085297 -3.363029 1.082694 -0.487874 1.291389 0.236881 0.139579 1.610395 0.699879
党 0.204835 0.723851 -1.929344 -0.627829 5.300043 3.874120 -0.531378 -1.688976 0.830175 2.278574 -3.106934 -0.490850 2.355592 -3.038487 2.418278 3.414877 1.026423 -1.054688 -0.687339 2.320801 4.015435 4.857375 -3.153215 -1.296694 -1.078649 0.719283 2.154377 2.182790 -3.114844 -5.178169 -1.817353 3.642452 0.061434 2.677192 -1.213646 -5.453422 1.251009 1.531715 1.556815 3.731794 -0.473306 0.960200 -0.181410 -3.378479 2.754766 0.077352 -1.324022 0.928944 -3.721772 -1.459610
内 -1.696850 2.278712 0.603322 1.786330 -0.142097 -1.956808 2.452734 1.678926 2.406652 -0.794332 1.780950 1.557507 -1.894582 0.353750 3.106282 0.793943 1.961108 -2.101106 -1.516448 0.002705 -2.414935 1.150970 2.125287 0.323466 -2.250483 -3.962549 1.538262 -2.746588 0.382513 0.167639 1.853164 2.562185 0.960322 0.927349 0.705317 -2.161129 1.919173 -0.925233 0.864661 -0.519551 3.959400 3.871521 -0.179798 -0.538018 0.912281 3.599990 1.488815 2.595881 1.873354 -2.793468
起 -3.764035 -0.833707 3.267275 -2.181464 0.575278 -1.283501 0.268054 0.163865 -1.114862 0.305958 3.277069 -0.329530 -0.395447 -5.057617 -2.520381 -2.063035 -0.711497 1.459225 1.012331 0.271167 -0.690012 1.992224 -0.256581 -1.261363 0.925477 1.120175 -0.487565 0.313839 -1.989313 0.751569 -2.005632 -0.178581 2.664523 2.507486 1.015648 3.669859 -1.801424 1.744737 -2.774722 1.290128 2.909744 1.302116 -0.394374 2.554783 -1.061213 0.269584 -2.370852 0.749508 -1.155159 -1.197872
入 1.992787 -5.924523 -0.673489 1.381845 -2.183924 -2.139190 4.934227 6.120564 3.654314 2.533511 -0.251215 -0.052283 -4.419542 -1.538359 -0.638145 0.687501 2.148782 -3.366612 1.902645 -1.251204 1.546285 -0.968011 3.949430 -0.150445 -0.888920 1.451674 1.650152 -2.869503 -1.803727 0.008180 1.328690 -0.538818 0.383536 4.517709 3.701204 -2.397120 2.650144 2.854789 -0.321669 3.643974 1.258693 -0.266138 1.877152 5.419641 -2.270991 -4.856023 -4.486555 0.367887 0.845456 3.715059
次 -0.138191 -0.456939 -0.347262 1.218291 0.906542 -0.750742 -1.954217 1.122692 -1.642519 -2.819571 0.554867 2.477352 3.671326 -1.777107 0.432210 -0.981038 -0.334054 0.306584 1.079800 -1.963378 -0.358386 -5.350416 1.079838 -4.214139 2.707261 -4.757586 -1.260960 0.794135 -4.251776 2.124974 -1.704939 -1.301072 3.166957 2.544936 1.553153 -1.577609 1.214067 1.510301 0.830651 8.232840 -0.158885 -0.709272 -1.679935 0.810556 0.319045 1.550846 -1.685267 0.757786 -1.708449 3.912329
记 2.112062 -2.743591 0.592316 1.366804 -1.092806 0.662750 -4.067917 3.778298 -1.978867 -3.351140 3.971442 -2.027493 3.292425 1.487241 -4.610540 2.796976 -0.590493 2.672988 2.645947 -0.321749 1.861250 4.240886 1.589604 3.854033 2.215534 4.086796 -2.225818 -1.104846 -3.942504 -6.896110 -1.626467 -5.005101 -0.507047 -0.297585 6.009062 5.189954 0.447051 2.986525 -1.589957 1.453659 1.961177 -3.221963 -9.215198 -1.600266 7.281022 6.080647 1.838198 -3.760988 3.078126 -5.220180
； 1.663609 1.003195 1.159072 2.741990 -0.845711 -1.194579 -0.239553 1.217255 0.227114 -0.145361 -0.836362 -1.533042 -0.256984 0.315164 -0.882840 -0.200036 2.140617 -1.445902 0.499525 -0.261050 -0.181589 -1.306074 -0.504827 0.547851 1.185427 1.618103 -0.771778 -0.919865 -0.215018 0.818073 -0.369837 1.421964 1.939723 1.223925 -0.246411 -0.503942 0.062806 -1.306954 -0.317315 0.817963 1.870878 -0.137538 -0.248640 0.851479 -0.630587 -1.633484 -1.231298 -0.458506 0.110006 0.262339
着 0.545034 -2.841346 2.310047 1.032280 0.600649 -1.763560 1.761914 -2.320370 -0.228507 2.570873 0.567584 0.579002 0.860112 -0.957049 -2.278140 -1.669456 -0.526204 2.798864 0.648184 0.065212 1.230890 -2.681835 -0.483131 -0.046067 -1.274584 5.209450 2.207738 -0.824682 -0.398285 0.621777 -0.568067 3.379502 -1.034059 1.469141 -0.012355 2.073481 0.797730 1.040867 -0.080604 -0.938017 4.627138 2.804633 0.062899 3.999893 1.466773 -2.520079 0.225366 0.199554 -0.650643 0.830362
系 3.863945 6.602718 1.715762 -2.184276 0.037797 -1.645071 2.251269 1.838534 7.148131 4.121959 1.184599 -1.406764 2.709218 5.640773 -0.264021 -1.662808 3.674623 2.263134 -4.959276 -1.241789 -3.709211 -0.129887 4.466597 -0.006228 -0.758918 -2.803971 1.228506 2.037869 -0.601640 2.169525 -0.749252 5.013914 -5.666566 -3.518809 3.205096 -5.346674 -3.299183 1.901963 6.407853 3.184221 0.141760 -2.002465 1.009506 3.156989 -7.480483 -3.621049 -2.284854 5.977404 -7.395978 4.789713
位 -3.703745 2.564068 -1.928724 1.026779 2.679203 -0.181764 0.561071 0.304145 -2.100736 0.326337 1.971213 0.390597 4.027937 -0.937134 3.626873 -1.185409 -1.496015 -0.194695 0.964149 -3.248605 3.155057 -4.190990 1.775227 -4.132673 5.871024 1.164979 -3.094659 0.617574 -3.373122 0.333720 -5.143650 -2.665537 -3.879613 -0.658733 -2.102519 -1.091041 0.093901 0.647356 0.444051 3.231191 -1.222466 0.579291 -3.651809 -2.140815 3.405254 1.162726 -5.496959 -2.036777 1.436309 3.102364
今 -2.597790 -1.559539 1.194468 -0.033816 -1.498840 1.893194 -2.096768 2.360030 4.961727 -2.722039 1.276562 -1.524300 -1.903247 -2.416724 4.376297 0.356471 -6.327366 -3.214627 -1.923149 0.583541 1.936525 -0.683215 -0.127045 4.036627 1.735850 -0.550796 3.564990 -1.403443 1.705922 2.601024 -1.454689 -0.441028 3.712043 -1.421555 0.616202 3.662150 4.091655 -2.521484 0.165068 0.422850 -0.947335 -6.410820 -1.131318 -1.397685 -0.436271 0.056898 7.612959 5.937160 0.141461 -2.934890
题 2.845498 5.238988 4.384305 -1.169896 -2.439446 2.658014 6.904630 -0.404355 -1.351190 6.224295 -2.410024 -3.208098 4.604127 -8.945988 -0.782525 5.275326 -0.716486 -3.411031 -0.554596 0.527626 -4.897756 1.136184 -2.158337 -3.654245 -4.499509 -2.597185 -2.100240 7.474553 2.429552 3.279938 -2.862056 1.232206 -0.130797 3.488187 4.511071 -1.913989 -1.538115 2.468440 -4.919963 3.515695 -2.477209 -1.318193 0.513953 -2.690023 7.998071 6.067683 1.880451 0.918536 -6.295376 -2.403832
（ 3.340143 -1.923806 -1.591813 3.111178 -4.039086 -1.732025 -2.968379 -1.969458 2.896799 -3.381311 -1.263174 -2.045258 3.584247 -0.965804 -0.693950 -3.445464 5.240717 -0.824720 4.847366 -0.268112 -2.044646 2.544333 0.691357 2.073349 2.057767 -0.591610 -0.228202 -2.118566 -0.351639 0.217092 0.338484 -0.110200 0.104887 -0.684301 -2.119882 1.207364 0.714528 -3.229913 3.527526 -2.033495 4.277204 -1.145898 -1.670618 -0.126291 1.112571 0.039122 1.080918 0.567282 -2.256591 -1.350149
） 2.179726 -0.640564 -3.600525 2.567596 -1.749173 -0.903554 -2.881941 -0.612146 2.095383 -2.673166 -1.522258 -1.693974 1.877566 -1.830642 -0.451766 1.186119 0.837831 0.634695 2.164543 0.014538 -0.685004 3.984938 1.268382 4.217507 1.448052 1.215415 -1.668285 0.581664 -0.917219 -4.555382 0.728062 -2.110095 -5.334750 -2.160743 -0.076426 -0.216346 0.251489 0.117957 0.993232 0.214097 1.221975 -3.131596 1.333972 -1.490875 -0.736766 4.245506 1.391924 -3.680444 1.067230 -2.154763
保 -1.915913 2.888950 1.443223 -0.907542 2.686347 0.856337 -0.398648 1.561877 1.857920 -1.979862 -3.445130 -0.401363 -2.408913 2.386763 7.362560 -6.263494 2.107410 -4.684702 4.068171 0.795305 0.513338 1.363299 3.840752 6.218930 4.730753 2.931470 -1.345878 -5.333050 -1.174267 -2.993239 -0.514119 3.412786 5.402110 1.866354 -4.988054 -0.247154 3.984777 1.027441 -0.706792 -2.291665 -3.987625 7.865022 1.767259 -3.203230 -3.655316 -4.116466 -1.907855 -0.845861 0.795814 4.744180
都 -1.832650 -0.632478 -0.143950 -0.204140 1.375898 -1.107253 -1.714198 0.420699 -3.424778 -0.739990 0.688602 -0.917075 0.372984 1.100411 3.687099 1.122545 -0.414012 1.162219 -1.930742 0.192917 -0.623728 -3.044658 -0.534832 0.708046 1.058305 0.713095 0.267177 0.904154 2.030786 0.938270 -1.276338 0.442973 1.654755 -0.074556 1.960742 -0.748852 0.068957 -0.098701 -0.928150 0.952967 -0.709527 0.117985 0.718001 -0.559420 0.932530 1.362836 -2.096953 2.385269 0.741612 1.860834
所 -0.705201 2.531679 -1.575132 0.118593 -0.091292 -2.384288 1.499501 -0.072479 -2.283993 -0.750563 -2.101356 0.181239 0.539236 1.196052 1.005588 1.507319 -2.766917 -1.079925 -1.894037 0.488347 1.753280 -0.280607 1.239710 0.005747 1.383894 -0.011458 1.710750 -1.588817 1.042358 -0.359109 -3.565968 0.288418 2.522169 0.447760 -0.395413 -1.437692 -1.265176 -0.920575 -0.683418 -0.292598 0.954774 2.108360 1.753935 0.070076 2.004555 -0.705372 -1.848451 -0.089430 1.434064 0.041738
还 0.930248 0.411007 0.683696 0.201675 1.193765 -0.355772 -0.960620 0.490909 -2.805344 0.082890 0.549379 -0.500471 -1.572806 0.500594 1.345569 1.609668 -2.102509 0.189057 -1.380483 0.411292 -1.644775 -2.019319 0.120902 1.244996 1.186936 1.883936 1.089394 0.192954 0.741177 1.182907 -2.108002 -0.496385 1.941106 0.156377 0.907059 -1.274968 0.191758 0.569074 -2.374661 -0.942195 -0.164334 1.096843 0.557945 0.473963 0.375744 0.128858 -1.085333 1.811830 1.868296 1.903138
品 1.064200 -0.378724 -0.906688 1.046488 -2.012118 3.828346 4.975135 -5.064562 -0.116611 0.962984 1.132406 -4.095064 5.475764 0.967657 -0.277514 4.757845 1.420855 -3.565091 -0.117062 -3.286008 1.012121 4.910205 -3.516676 1.328336 -3.739200 0.674472 -2.479482 -5.407444 1.602618 3.606315 0.558489 0.351659 -0.104614 -1.221282 -2.449110 -2.566315 -2.107364 -3.033689 -2.703288 -0.402162 1.692432 3.236785 6.192416 -2.069689 -3.547290 0.023989 -2.548202 -0.364634 -0.980311 4.589063
强 1.137919 0.128874 -3.061148 2.159632 1.958151 0.619265 -6.779389 2.769677 4.917118 2.899764 0.792603 -3.683984 -2.601208 4.447023 -0.996778 2.719961 1.661059 -0.974399 -0.646912 1.174801 2.087953 3.366578 -3.217160 -0.057491 -3.647680 -3.448788 -3.817197 2.318465 2.350616 -0.529932 3.577239 -1.439318 1.987441 4.111929 -2.499154 -2.618456 2.103354 5.158309 -3.021680 -3.834568 1.103529 -0.534563 -0.009273 5.487263 1.174368 -1.119880 -1.537140 6.252903 1.197691 1.583835
委 -3.833733 -0.282704 1.787502 3.130430 6.103231 4.451787 -4.545228 4.337866 1.645775 -3.382397 0.488166 0.090453 2.182819 -0.780960 6.811403 0.366036 1.963841 1.050587 5.380975 1.389977 -1.514096 5.006224 0.874953 0.247378 1.619597 -0.376017 0.716342 -2.478948 -6.461782 0.301227 1.399702 4.123553 -1.177065 -1.482348 -2.312379 -6.987145 -3.256141 5.415762 3.915313 0.620277 -2.182860 -5.075005 -0.375060 -1.918650 2.358513 5.531120 -1.986183 0.186605 -3.020219 -4.177694
特 1.149933 -1.144777 2.153871 1.014169 1.433953 -5.962306 -2.686598 0.545035 -2.336410 1.172102 0.006870 -3.095818 1.982055 -4.756287 2.549282 2.398854 4.675452 -2.733046 -2.018311 0.136999 -5.176606 1.550478 0.880693 -0.767029 1.244764 -3.103328 -2.167610 2.732505 2.944182 -4.944858 0.423744 2.577308 1.502113 3.653517 -3.107483 -0.824007 0.779515 -1.175311 -0.802295 -1.663550 -1.321856 7.179128 4.169536 -0.727101 1.374565 4.723796 1.441280 1.250518 0.413036 0.484069
目 -2.844409 -0.041322 -1.049452 2.423542 -0.754239 3.058650 2.097358 6.462877 2.461252 -1.321499 3.818316 -0.627622 0.597541 4.568191 2.289573 3.099135 1.258138 2.253480 -0.693196 -0.229125 -4.661750 4.112839 0.232988 -1.445138 -0.891307 2.484006 3.841551 2.426905 -2.530286 -5.107366 -4.425751 -4.192853 -2.304729 2.946012 -3.101318 2.322850 3.384030 -7.650468 -5.162674 -0.848254 -1.619758 4.285333 0.996020 1.780615 2.501458 -4.749526 -0.692242 3.146882 2.015415 0.076039
水 1.335625 -2.215132 -1.955856 -1.166997 2.628300 -0.848037 4.719808 -0.591608 -1.505424 -0.528749 0.135860 -0.657208 -2.558358 2.178857 -1.453999 -0.975464 5.780503 -3.648172 2.582274 -1.084493 -0.494921 -0.233017 -4.020161 -0.785198 0.493900 3.436175 -1.933981 -3.266917 -1.075410 -0.378191 1.129474 -0.828322 -2.025892 -1.790189 -0.666415 0.582063 -0.316933 -0.910955 -1.502365 -0.116310 2.562098 -0.014964 -1.092318 0.098849 0.684721 -5.281337 0.884759 -2.789174 4.159329 1.570816
最 -0.104504 2.080001 -1.332567 -0.270871 2.209619 2.685066 2.232723 1.063265 0.287363 -1.730495 -2.175731 -0.855131 1.513269 -0.640086 1.849597 -1.978343 0.490786 -1.340545 -1.225532 0.946662 -2.769725 -1.005812 1.337721 -2.091890 -1.679736 1.742925 2.941133 1.111198 -1.734371 0.006435 -2.088553 -0.653632 4.147982 1.208909 0.917595 -0.222994 -1.528310 -2.432753 -2.237491 4.542373 -3.733366 -2.975859 2.034308 2.970963 -0.523023 -0.902384 1.130046 -0.788907 0.220000 1.425768
名 3.128087 0.480050 -0.903452 2.458855 -0.423525 -1.902941 -2.860982 -1.494618 -1.569005 -2.698366 -0.694039 0.790718 5.309208 -2.249285 2.491827 -1.767969 0.600078 -0.582676 -0.923864 -1.959991 3.290611 -1.511344 2.992296 -4.303571 3.245722 -0.352133 -0.364385 -0.670663 -4.137148 -1.498094 -1.255723 -2.779851 -1.033539 0.225705 -2.520431 -0.392121 -0.621800 -5.188870 2.006931 3.459198 -0.672340 1.620984 -0.266139 -0.248934 1.112785 1.368689 -5.354341 -0.436955 1.587941 2.963814
通 3.365011 -3.073009 3.086220 -1.223285 -0.038318 0.513101 -0.393085 4.615498 1.673489 -2.711509 -4.241057 3.274718 1.681834 8.825801 2.954737 3.074771 -0.296647 -0.980940 2.000636 -0.102609 3.255103 1.660797 -1.003859 1.767696 -0.221098 -6.670118 5.046450 -1.239955 4.005199 -0.532558 -1.158064 5.703835 -3.060590 2.623774 3.919675 -0.670796 1.638345 -1.797362 -3.177309 0.600598 -2.108037 0.497535 -2.329808 -2.901172 -0.730497 3.161123 3.879428 -4.790822 0.496919 4.155672
三 0.392185 1.363787 -0.244183 1.825864 0.119925 -0.249878 -1.529628 2.086263 5.268980 -0.112537 0.826406 -1.333503 0.350624 -0.541863 2.480741 1.092630 -1.322475 -3.247491 1.809627 3.627850 -1.902394 -1.844461 -4.546812 -0.238341 0.641028 0.657684 -0.514565 -0.504961 0.941142 -3.838717 -0.225113 1.820542 0.138363 0.928072 0.565504 0.362176 2.372160 -2.497706 -0.451026 3.537575 -0.804544 -2.507154 -0.160011 -2.307370 -1.309712 0.405100 -2.029235 1.933093 2.452928 -0.928626
第 3.654225 1.876004 0.840759 4.986298 0.302567 2.381040 -2.853427 2.931234 4.640818 0.732605 1.157185 -1.246666 0.375912 -3.402879 1.549139 2.417713 -1.844443 -0.834134 2.708660 0.394847 -1.978626 0.309436 -3.834507 -1.460190 1.487156 -0.714329 -2.791535 -1.346255 -4.713367 -4.271737 0.861546 2.624652 2.903159 -0.254030 0.354397 0.556617 -0.475440 -4.966418 1.811822 5.165181 4.431313 -1.472258 -0.078680 -1.155310 -4.986723 0.561844 0.568790 1.534898 -0.954132 1.209292
已 -0.462049 2.380936 -1.197466 0.688608 0.653938 -1.751443 1.461195 -1.373236 -2.629581 -1.624437 1.715640 -1.082203 -3.133920 -4.395641 0.003627 -3.947236 -3.445531 -0.990150 -0.991448 -0.755808 -2.981694 -0.739503 1.227088 0.338494 -1.775696 3.684928 -0.835857 -1.336878 -2.680879 -0.027851 -1.638305 -4.052579 2.839116 -0.883662 -2.355787 -2.563461 -2.497649 -2.508758 -0.487199 1.391902 1.102088 0.476873 0.108394 -0.488580 -0.858200 -3.285204 -2.471680 5.159519 -0.494436 -0.539499
基 1.328434 0.344193 -5.568573 -0.583598 3.484913 -1.249913 0.783958 7.120537 3.724897 1.784747 2.231790 0.847236 4.181225 4.489239 1.539872 3.014187 0.981583 -4.705042 1.690077 1.916123 -3.706344 0.970715 -0.094605 -4.447770 3.521950 -3.707628 -3.779639 -1.748275 -4.505834 0.464324 -0.137882 -4.856285 0.241889 -2.795934 1.081579 -1.303153 5.782612 6.815647 3.678895 -2.390354 -1.567971 3.735100 -2.644232 1.581807 4.696356 -3.169512 1.166584 0.017439 -4.182724 4.161533
立 -4.205385 2.469755 2.463984 -1.557598 0.992806 -4.277360 -2.816086 -1.956933 2.512144 -0.625247 0.750410 -6.110759 -1.028830 -1.570592 3.926092 5.196828 1.693646 -2.097878 1.293857 2.693961 -1.850708 1.793109 2.989389 0.003008 -2.299853 -2.235079 1.705869 1.998923 2.310895 -4.229907 -2.293290 -2.712913 5.573460 -3.590143 1.745565 -1.268132 0.285303 0.632868 -0.040249 0.677603 0.191130 0.678146 -2.032920 -4.595084 -0.814875 -2.820921 -1.053353 1.442563 -4.777662 0.408581
教 2.419284 -4.917281 -1.956964 0.620112 3.738492 7.391142 -0.940731 0.552735 -4.089263 5.540227 -1.296235 0.495141 3.569528 -2.697467 1.182410 0.289695 -2.573099 1.247500 0.485934 -1.141560 5.871455 7.024287 1.909278 -0.585063 -1.149089 -2.706575 -7.412955 -1.467782 0.826368 0.565125 4.414263 4.968268 2.075803 -0.028992 -0.649356 0.227692 2.350412 -4.171088 -0.044010 1.190189 1.775555 3.152651 -2.185326 -1.626598 2.792078 -3.449260 -2.718069 1.786308 2.236986 -5.381672
正 -1.302149 -0.878884 3.242938 -2.372065 0.527734 3.031549 -2.503796 0.353151 0.882686 -0.534230 -2.350759 1.232239 -1.835631 2.236748 3.030813 2.939709 -1.245065 2.230909 2.830938 0.814344 -1.564235 0.107791 0.127300 -0.219858 3.953265 -0.813267 -0.475803 0.169831 3.551265 -0.332073 -0.941028 0.032926 4.101327 -1.602370 -3.129999 2.906806 0.301757 4.969361 0.152662 -3.048903 1.359205 1.797097 -1.741358 -6.170639 -0.943357 -0.602035 -0.842381 3.114523 -1.297664 -0.685134
使 0.699787 0.615245 4.371532 0.844351 1.479614 -1.682863 -0.164339 -0.508250 -1.427118 0.570349 0.732035 -0.913167 1.412652 2.277390 -1.324794 -0.857605 0.844135 -3.562367 0.006996 -0.735755 -1.012915 -1.095267 0.111017 -0.394619 -2.038788 -0.649396 1.764275 0.725923 -0.006923 -0.625739 -2.521191 0.002680 4.339805 0.034384 0.832453 -0.779300 -3.638326 0.418121 0.504887 -0.657767 -0.877974 0.111795 -1.162598 0.883721 1.040201 -1.916395 0.622814 -0.249328 0.997204 0.670115
术 -2.033126 -0.562030 -5.098664 -6.368351 2.763804 4.930657 -1.662176 -1.186389 3.058670 3.517205 -0.699928 -2.929330 -1.379119 2.819462 0.963713 4.550678 -6.581473 -6.315751 -1.751467 -7.801696 2.551732 0.922336 0.412080 -3.786030 1.433856 2.958090 1.961458 -6.335290 4.741882 -5.140062 1.227353 -3.158276 -2.542886 3.935690 -0.037335 -0.595042 0.008092 -3.100380 1.151271 -4.815730 2.959418 -5.092640 3.556587 5.541325 -4.045060 -1.918488 -2.525285 -4.471318 2.568328 2.223853
改 -5.857510 -0.546279 -3.212769 -3.603664 1.166745 2.942955 4.994408 10.185652 1.431302 5.331724 -5.637099 -2.713393 -2.846807 1.967906 -1.204610 1.271874 -3.948744 -1.752826 1.202243 2.041483 1.810209 -2.090381 1.198679 2.366725 -3.477954 1.130696 -1.808461 0.995962 1.886841 -1.595594 -4.647918 3.068134 1.687073 -0.912953 3.914342 -3.035894 -2.401483 5.939737 1.193824 1.669849 -1.412655 -1.053813 2.406271 2.557072 -8.803697 0.535678 1.430836 -1.087693 -2.506835 -3.169200
技 -0.204413 -4.562193 2.235124 -1.098306 -1.110807 0.198079 3.472627 3.928314 -5.526639 1.033792 -1.500264 0.138907 7.451409 2.521011 -1.200590 -0.866722 9.080018 -1.378603 1.886598 6.981330 -0.141837 2.866733 2.078391 -0.315364 -9.080662 -7.950377 -3.196683 2.632198 -6.011407 5.442708 -1.286171 1.245654 2.234736 -7.110686 -2.530655 -3.551043 -7.711185 -2.887537 -4.662560 3.636035 -2.044771 3.214577 0.656509 0.333651 4.587246 -1.431113 -2.002251 3.324804 1.455410 -2.760658
活 -3.429595 -1.859507 4.119158 -6.024166 -2.784983 3.268155 -1.859242 5.609056 -4.047475 -1.709976 -1.833615 0.829265 -1.128895 2.697602 -0.819366 -0.911551 5.544531 0.348608 -4.750194 -0.172156 0.477918 -7.189002 4.806525 2.795966 4.096707 3.611238 -1.210460 4.870257 0.974159 -1.812049 6.626298 -0.281762 -0.610993 1.047761 3.979964 -0.729250 -2.769101 -3.803579 1.035800 0.024871 -4.026888 1.632783 -3.253373 1.598441 -3.443621 -0.694925 -1.671884 3.059815 -0.807532 -2.216626
组 -5.351023 1.522360 1.342249 6.177356 0.947882 1.715003 -4.447843 -2.990638 -0.011457 -1.347905 -3.743904 -3.872226 2.938545 -3.171570 5.284923 1.492820 3.505289 -0.550150 -1.208749 -5.587847 -1.763016 0.693277 -0.915570 0.558639 -0.364080 -6.024285 -1.449200 -0.978515 0.353206 -2.565659 1.697872 -3.629182 2.545537 -2.262856 1.175809 -1.338578 -2.622527 0.800679 -1.461724 0.478194 2.449969 -2.567977 -1.718960 -5.526349 2.096818 -2.284506 -7.410900 8.862918 -7.116771 -1.520398
些 -3.726183 1.286014 0.849915 1.983136 0.646461 1.463657 0.532183 -1.285336 -2.932479 -1.160435 -3.014850 1.702426 3.226107 -0.317480 1.519416 -0.721542 -2.510884 0.551645 1.178418 -2.987434 -0.429448 -2.741384 1.336648 -3.642695 3.213163 -0.406996 -1.843056 1.791320 -1.159335 3.705138 -3.666976 0.148776 4.287272 -0.429436 1.009186 0.019604 -1.500862 3.615314 -0.509703 0.643827 1.642847 3.141783 -0.857669 0.497136 -0.830319 0.986012 -1.108465 -1.438997 2.686357 2.799807
道 4.307064 0.468979 0.155924 -1.013339 0.062989 0.654344 0.903796 1.900151 -2.852849 -3.902833 0.999305 1.391517 1.517328 -0.096575 2.596135 -1.881364 0.638070 3.234943 2.108043 -1.140216 2.634552 0.297539 -0.932540 0.948954 -0.799227 -1.811357 -5.040058 5.041317 0.629671 0.874047 -0.985999 3.405315 -1.132146 -0.360870 -2.333672 0.006553 -0.033986 -5.733035 -1.709637 -0.862569 0.318109 1.456744 -6.896833 -0.731317 -0.659333 2.678536 2.954137 -1.146417 2.532695 -0.765443
界 1.429627 -3.058351 2.728096 -3.173279 -0.701338 0.631737 7.057832 -3.234970 -1.105966 -0.783934 2.729605 5.618049 1.525973 3.682479 -0.078807 2.430052 3.145396 -0.689984 -6.187197 -3.337457 -2.370144 -2.324854 2.003761 -0.119183 0.166522 1.287310 2.012114 -0.219634 -0.328619 -4.821511 -5.494029 -1.151675 -0.934411 -1.999178 -3.264022 1.780371 -2.454813 -5.267278 9.246552 8.663775 1.681390 1.816626 0.849331 -4.291782 -2.251211 -2.083321 0.298059 -1.185352 1.026236 -0.828814
导 -5.001276 4.167506 6.150835 -3.756509 1.696077 -0.822759 -1.009407 1.061528 2.278359 2.111235 -1.455446 -3.816366 5.664953 -4.824102 -0.895480 -6.154900 1.709086 -0.975994 -3.081826 4.424677 5.363412 1.908825 1.554393 -2.712666 -3.917341 0.442557 -2.251284 -1.940548 3.639823 0.462970 -4.217125 6.249501 0.822390 5.019041 -0.542111 -4.118232 1.588189 3.745479 -4.240458 2.992264 -0.376362 -4.279424 2.091579 0.206947 7.671050 0.120885 -4.379139 -2.366710 0.982543 -5.880208
— 3.273447 -4.723769 -0.300230 0.996592 -1.797003 -4.532773 -0.427327 -0.148581 5.041033 0.518703 -2.767872 3.070053 4.171628 -1.790464 -2.046478 -2.265033 1.590904 -3.131414 1.245094 0.992247 1.822239 -2.791773 -0.480409 4.305362 1.016377 1.696334 -4.356890 -0.325019 -1.614499 1.028288 -0.767584 1.683413 -2.995330 0.413284 -2.120929 0.150007 -1.917599 -1.340373 -1.653410 -2.017657 -1.560934 -2.032054 0.711355 4.768876 0.712989 0.239857 0.211453 -1.469734 -0.517225 -0.329234
意 1.421600 -0.502340 1.297091 -3.271043 -2.588430 5.824625 3.159836 -1.094792 -1.745472 -1.292993 -0.550487 -1.688933 -1.335766 1.077344 1.743035 -0.506281 1.028774 4.107942 -4.091038 4.123249 0.818214 0.287347 3.448757 -1.257772 7.010372 2.196372 -1.561433 5.306092 -0.027348 -2.705740 -6.291239 1.842085 2.768011 4.032237 -0.246176 2.965600 0.284656 2.819524 -0.208492 -1.521801 0.741996 -0.433430 4.645169 2.117173 0.792084 -4.067344 -4.038473 0.197514 3.703887 -0.039654
向 -0.549112 -2.251758 2.389400 -2.300832 -0.849500 -1.716830 -0.733072 0.178327 1.956335 0.313867 2.311127 0.923025 -0.762843 1.154934 0.578061 0.829255 0.697998 -0.697247 -0.339760 -1.024899 0.524451 0.843674 0.029188 -2.063790 -1.231922 1.598842 0.803289 -0.841596 -0.614530 1.306894 -0.046878 0.112911 1.645026 2.993271 -0.100888 -2.160211 -2.516551 0.556853 1.420198 -0.199456 3.246652 0.205293 -4.358253 0.940093 0.153210 -0.879071 0.863854 -1.058878 -0.505723 1.200630
海 3.818864 -1.977786 -1.128728 -0.664454 2.433919 0.967527 3.609997 0.580219 3.968545 -1.048911 1.611238 1.632249 -2.128311 -1.882623 4.515181 -1.307787 1.047295 1.847642 -3.329558 -0.397647 -2.477146 -0.906803 1.749836 -2.756239 -1.164238 1.901463 -2.634010 -1.895996 -2.991660 -1.125276 2.069268 0.535186 -6.114089 -1.240077 -0.506970 2.075227 -4.124774 0.346533 0.335991 0.802410 -0.446218 -1.934363 -0.248918 -0.630003 -2.165969 1.481146 1.605037 -0.434030 0.192010 1.826385
军 1.504542 -0.861677 -0.532199 1.256281 3.063576 0.866037 -1.919960 -2.311320 -0.291270 0.260250 -1.643269 2.002273 -0.621169 -3.996959 2.653241 1.720759 2.665102 -1.166327 -4.370419 0.223510 3.667533 -1.867785 0.205549 -0.225801 -2.263379 -1.391019 2.347686 0.049560 -1.021311 -6.934498 0.739714 5.405984 3.021348 3.802247 0.389471 1.237103 -0.318619 -2.341593 1.270738 -0.002836 0.675361 -2.242229 -4.221570 -2.011107 -2.750915 0.581734 -2.738698 -3.058679 -3.075425 -2.677377
领 1.340169 -2.606218 -6.018947 3.374918 4.015183 3.332108 -3.137732 -2.256338 -4.221068 6.873161 -1.670634 3.045483 0.275196 7.762698 5.593594 7.162583 3.549856 -0.983655 -2.915498 -2.885854 -1.638557 0.035670 -6.225861 -0.356668 1.599265 0.564895 2.533150 -0.204158 -7.434841 0.602118 1.771564 -2.939889 -0.433250 -2.119715 -2.396915 -4.458905 -1.210968 0.723099 4.149413 -0.219631 3.042875 1.421423 -5.397552 -0.422522 -3.030569 3.271982 0.521823 2.986084 -2.056307 3.075378
西 -0.540753 -4.530905 -2.865988 1.440480 0.291075 -2.728826 -2.234133 0.664487 2.517814 2.953875 1.649022 1.126169 -3.911943 -2.569458 3.802373 -4.062120 1.899150 -2.464976 -3.004358 1.007330 -2.931874 4.249082 -0.452190 -0.951772 0.512153 0.994224 -2.605032 1.463931 -1.095116 0.927285 -0.286087 2.468855 -1.833674 0.815513 1.861045 0.628053 -2.452742 -1.149659 -0.596855 -1.736215 -0.244084 -2.318639 -1.900959 -4.216978 -0.033048 2.627285 1.835211 0.703227 2.503657 1.333860
并 0.394712 -0.001818 1.117931 0.098061 -0.479986 -0.478157 -0.776937 0.945204 -3.750973 0.794459 -0.285101 -0.842510 -1.049669 0.395750 -1.196669 -0.554092 -3.661345 -1.031226 -1.664583 -1.379567 -1.610113 -0.012717 0.524257 0.903168 -1.228298 -0.803208 0.382809 -0.253551 2.036594 -1.209384 -0.627089 -0.645613 2.010884 2.993794 -0.105091 -2.338306 0.164871 2.327732 -0.054119 1.078861 2.427161 0.250622 0.725285 -1.255930 0.656208 -1.185596 -1.656591 0.875053 -0.932586 0.277794
